tree
version=v4
num_class=1
num_tree_per_iteration=1
label_index=0
max_feature_idx=35
objective=binary sigmoid:1
feature_names=Column_0 Column_1 Column_2 Column_3 Column_4 Column_5 Column_6 Column_7 Column_8 Column_9 Column_10 Column_11 Column_12 Column_13 Column_14 Column_15 Column_16 Column_17 Column_18 Column_19 Column_20 Column_21 Column_22 Column_23 Column_24 Column_25 Column_26 Column_27 Column_28 Column_29 Column_30 Column_31 Column_32 Column_33 Column_34 Column_35
feature_infos=[-2.9044492374766087:3.6063589378747078] [-2.890604357312673:3.5710401067827386] [-3.4701455031170263:3.0100157126484683] [-3.3540723223675752:2.8358266804905208] [-1.4614807637269966:4.8868221648377821] [-1.432063791083948:16.426471956200935] [-2.6346526044597343:7.652659256465542] [-2.301794009850163:6.5918565549276904] [-1.4669662224419904:1.8282046502678124] [-1.2760276904545889:2.2607262215911019] [-4.9248272424620003:4.2693431162401581] [-4.0405616399137303:5.2807667915673289] [-2.7243185401945649:9.2603536143494729] [-2.3814254642547259:12.924113728423036] [-5.7257877637408559:3.1678167015643495] [-4.6476821086296969:4.2715693529809231] [-1.2474571573202757:7.5697564919291933] [-1.1348434359576089:9.7673866504880991] [-2.0925829642944187:3.389331596018601] [-1.7092872020611165:3.088237467955389] [-3.0346238054832595:1.9595348581790941] [-2.4323544541739417:1.8272074776488647] [-0.84909913130132308:29.264685395560033] [-0.74125278136633976:20.171427157415671] [-2.8297047071452197:4.1826990943216371] [-2.4410414312875615:6.6582395607098759] [-7.1162495051848786:2.9126555076169036] [-5.8970512681106513:2.5953904445697735] none none [0:1] [0:1] [0:1] [0:1] [0:1] [0:1]
tree_sizes=3340 3458 3448 3460 3464 3453 3454 3455 3451 3451 3464 3459 3464 3461 3473 3451 3458 3467 3470 3464 3472 3470 3462 3466 3468 3461 3457 3471 3465 3462 3457 3461 3473 3462 3471 3471 3456 3461 3469 3464 3469 3470 3479 3468 3465 3471 3462 3486 3472 3461 3471 3484 3487 3459 3470 3461 3469 3475 3476 3447 3470 3468 3466 3470 3450 3481 3475 3454 3477 3473 3469 3460 3471 3469 3477 3470 3456 3475 3461 3473 3458 3467 3462 3469 3464 3482 3464 3481 3475 3462 3480 3471 3456 3474 3474 3459 3466 3476 3464 3467 3463 3483 3493 3478 3486 3473 3477 3474 3469 3465 3464 3460 3472 3464 3462 3470 3485 3473 3470 3461 3482 3470 3458 3470 3453 3465 3475 3457 3448 3475 3460 3458 3469 3430 3448 3478

Tree=0
num_leaves=31
num_cat=0
split_feature=7 8 9 26 25 13 9 9 8 7 9 10 25 11 10 25 23 26 13 7 22 25 13 7 26 19 25 26 7 8
split_gain=363.939 231.283 115.081 109.784 70.6241 48.2428 42.282 41.1804 34.6842 33.3277 31.4739 25.5772 25.3983 27.1591 23.9935 21.4559 18.872 17.9232 17.5421 16.5877 16.4849 16.2978 16.2486 16.2757 15.8234 17.8063 18.9119 15.5612 16.7771 15.4941
threshold=-0.3550112462537664 1.0000000180025095e-35 1.0000000180025095e-35 0.37328532809337561 0.4126921393447503 0.92116977043196435 1.0000000180025095e-35 0.22709272216482984 -0.52784252371969653 -1.1641536382281121 0.52771680468871363 0.2261236211482453 -0.35054230051411889 -0.35863690947871169 -0.10619578940725442 1.1095251829358983 -0.6774946108212726 -1.0421240209560476 -0.26926105566519493 -1.0949961688285954 0.31970072476407213 0.38979510614898388 0.79872545689054208 0.75150826413850169 0.37328532809337561 0.3776360293960635 -0.14523223619208328 1.1054989225178817 0.64777206003922638 -0.9067871740813237
decision_type=2 2 2 2 2 2 2 2 2 2 2 2 2 2 2 2 2 2 2 2 2 2 2 2 2 2 2 2 2 2
left_child=2 3 8 4 5 10 17 11 19 -4 12 21 13 -2 -7 18 -9 -3 24 -1 -16 22 23 -5 25 -11 -27 28 -13 -14
right_child=1 6 9 7 -6 14 -8 16 -10 15 -12 27 29 -15 20 -17 -18 -19 -20 -21 -22 -23 -24 -25 -26 26 -28 -29 -30 -31
leaf_value=0.58687005996085628 0.54694608707256698 0.54231922056760851 0.57472620925731599 0.54185307751429068 0.54801558771614978 0.51845373622412527 0.54331997741343718 0.5556580833240895 0.58507309053535594 0.49819352526768923 0.49459668198897644 0.57081516919204212 0.51428614303969855 0.50539729363520702 0.55910398399909356 0.57069733513135357 0.51622078833723917 0.57366040136411511 0.55759002873358665 0.55217472720696581 0.50087223745477039 0.57316816809141646 0.56520072277099964 0.5060064358133427 0.55224197346405313 0.50241249696234214 0.55399037614832369 0.57994405217513401 0.53546883562484215 0.53867163092172543
leaf_weight=16.694774866104126 15.999159246683119 17.854134231805801 36.403884083032608 35.940140336751938 93.908108621835709 28.520240396261215 63.069149494171143 15.071671754121779 331.8086504638195 21.332212328910828 62.373533874750137 28.28836852312088 36.635755956172943 123.12396463751793 43.128168404102325 18.781621724367142 39.650090306997299 204.74286398291588 23.650931060314178 48.229349613189697 4.8693093359470359 14.839799880981444 15.767287373542784 16.694774866104126 17.158518612384796 10.202362418174745 17.158518612384796 46.142502754926682 21.100340455770493 65.155996352434158
leaf_count=72 69 77 157 155 405 123 272 65 1431 92 269 122 158 531 186 81 171 883 102 208 21 64 68 72 74 44 74 199 91 281
internal_value=0.553011 0.542221 0.572797 0.533019 0.52472 0.51896 0.565003 0.549855 0.581149 0.549894 0.51359 0.556825 0.518507 0.510175 0.540247 0.541546 0.527083 0.571147 0.535428 0.561096 0.553196 0.544669 0.538486 0.530483 0.527469 0.518739 0.534758 0.567417 0.555714 0.529895
internal_weight=1534.3 992.875 541.421 707.209 473.714 379.806 285.666 233.495 396.733 144.688 303.288 178.773 240.915 139.123 76.5177 108.284 54.7218 222.597 89.5025 64.9241 47.9975 83.242 68.4022 52.6349 65.8516 48.6931 27.3609 95.5312 49.3887 101.792
internal_count=6617 4282 2335 3050 2043 1638 1232 1007 1711 624 1308 771 1039 600 330 467 236 960 386 280 207 359 295 227 284 210 118 412 213 439
is_linear=0
shrinkage=1


Tree=1
num_leaves=31
num_cat=0
split_feature=8 7 27 26 9 9 26 13 7 7 9 25 6 7 27 27 27 27 26 13 27 10 15 25 26 25 25 8 9 7
split_gain=344.368 225.643 140.404 82.3745 73.3162 69.5726 51.8526 39.4921 37.779 30.708 27.1782 26.6426 26.6177 26.5275 25.6775 25.6459 23.0074 22.9436 20.1853 19.9602 18.5257 18.1433 17.7172 17.2048 14.7002 16.5572 14.3717 14.3693 13.4535 15.94
threshold=1.0000000180025095e-35 -0.32043251155400804 0.52686228844886596 0.28494469762650493 0.050255026562545262 1.0000000180025095e-35 1.2254026202430195 1.7136565775195021 -0.33426400543391138 -1.1641536382281121 -0.30342036464202377 -0.097148466480974333 -0.19778383030855065 -0.9774284708494172 0.76239448484527206 -0.38068891000551563 0.11411301327340945 1.3293875596238955 -0.017537776103129305 0.8803549992514903 0.42424584381663338 -0.10619578940725442 -0.14346012051633375 1.5163291393806753 0.24811309735290074 0.46688178457473001 0.1913541517856783 -0.099470310267422243 0.29782780040574369 0.47487838654043441
decision_type=2 2 2 2 2 2 2 2 2 2 2 2 2 2 2 2 2 2 2 2 2 2 2 2 2 2 2 2 2 2
left_child=1 4 3 7 13 8 11 10 -2 -6 26 19 -5 -1 -11 -12 -7 24 20 28 -15 -13 -18 -17 25 -10 27 -3 29 -4
right_child=5 2 6 12 9 16 -8 -9 17 14 15 21 -14 18 -16 23 22 -19 -20 -21 -22 -23 -24 -25 -26 -27 -28 -29 -30 -31
leaf_value=0.033999440645428973 0.036760815559542942 -0.028405649650613166 -0.031653863350281523 -0.011042311064483515 0.019665250503710596 0.011607228605292301 0.0012934085898943996 0.019744501927449715 0.0062937119653698392 -0.0095988664588970117 -0.013651271306228946 -0.04622259592242485 0.016617510874889347 0.010384460660082391 -0.050894540116222881 -0.037314936409060466 0.010341709810289281 -0.025219264337788233 0.025003879441017035 -0.025513677129242247 -0.024715066395236837 -0.0062681426023805708 -0.029794585223438599 0.02149539833172915 0.029377835615238129 0.031792513913944428 0.010853104872144411 0.0029720561107278607 -0.067919229032582101 -0.057845953721460348
leaf_weight=84.813833951950073 183.82746648788452 32.265315338969231 34.773428380489349 44.139227166771889 25.348525196313858 58.737350314855576 26.153975069522858 22.769962579011917 83.316641181707382 66.251670271158218 80.231831938028336 17.256113931536674 107.749073818326 59.055870890617371 17.036125540733337 125.47882562875748 14.611844494938849 10.386753037571905 65.705248460173607 26.292453348636627 17.557128712534904 25.118231520056725 30.684775233268738 4.6426194906234732 92.43442490696907 31.615359008312225 27.889894172549248 22.154040977358818 42.932256832718849 52.459178373217583
leaf_count=369 800 138 149 190 110 253 113 98 361 285 344 74 465 256 73 537 63 45 285 113 76 108 132 20 401 137 120 95 183 224
internal_value=0.000811436 -0.00915778 -0.0189457 -0.00957155 0.0110235 0.021082 -0.0384169 -0.0183117 0.0267461 -0.00924646 -0.0212726 -0.0436403 0.00857948 0.0207185 -0.0180457 -0.0269913 -0.000781964 0.0182917 0.0128039 -0.0493554 0.00234083 -0.0225388 -0.0168474 -0.0352166 0.0204711 0.0133079 -0.0066576 -0.0156318 -0.0541712 -0.047405
internal_weight=1533.69 1028.07 692.306 467.321 335.768 505.615 224.986 315.432 401.581 108.636 292.663 198.832 151.888 227.132 83.2878 210.353 104.034 217.753 142.318 156.457 76.613 42.3743 45.2966 130.121 207.366 114.932 82.3093 54.4194 130.165 87.2326
internal_count=6617 4425 2971 2007 1454 2192 964 1352 1744 468 1254 851 655 986 358 901 448 944 617 669 332 182 195 557 899 498 353 233 556 373
is_linear=0
shrinkage=0.03


Tree=2
num_leaves=31
num_cat=0
split_feature=8 7 27 26 9 9 26 13 7 7 11 27 9 6 27 27 27 27 8 9 15 26 26 26 6 15 13 10 7 13
split_gain=325.28 211.433 129.938 77.1285 69.436 66.3667 47.8291 36.9755 36.4321 28.8418 25.6921 25.2458 25.2177 25.1436 23.689 23.6425 21.6726 21.6127 19.8356 21.0827 16.512 15.8209 15.5724 14.0888 12.9756 16.5801 14.657 12.9274 12.8206 12.7718
threshold=1.0000000180025095e-35 -0.32043251155400804 0.52686228844886596 0.28494469762650493 0.050255026562545262 1.0000000180025095e-35 1.2254026202430195 1.7136565775195021 -0.33426400543391138 -1.1641536382281121 -0.26542362516390111 0.15978757242657821 -0.37415544288293762 -0.19778383030855065 0.76239448484527206 -0.38068891000551563 1.3293875596238955 0.11411301327340945 -0.56079423244679449 0.08562256568300218 -0.14346012051633375 -0.33597628309591521 -0.57120989833864022 0.24811309735290074 -0.86687728467767433 0.92685005487694083 -0.27606351752860731 0.2261236211482453 0.025354835443575679 -0.3576930598895553
decision_type=2 2 2 2 2 2 2 2 2 2 2 2 2 2 2 2 2 2 2 2 2 2 2 2 2 2 2 2 2 2
left_child=1 4 3 7 10 8 18 12 -2 -6 -1 -12 -3 -5 24 -14 23 -7 -4 22 -19 -13 -20 -10 -11 26 29 -8 -17 -26
right_child=5 2 6 13 9 17 27 -9 16 14 11 21 15 -15 -16 28 -18 20 19 -21 -22 -23 -24 -25 25 -27 -28 -29 -30 -31
leaf_value=0.030295814842094884 0.036049762288410288 -0.0063344814133716272 -0.052043778635764891 -0.010679485643490883 0.019183858871651496 0.011294849801596025 -0.026028751160934945 0.01925616296098652 0.012958513350643269 -0.03369462464288156 0.021983119861335144 -0.029159051644298495 -0.013204616019023835 0.016193664432394707 -0.048744949399174897 -0.01702415680323149 -0.024293409438695405 0.010060048343542769 -0.047335789715241973 -0.05243660325447725 -0.028676169175797052 0.0068826495679637579 -0.015840506354449401 0.02874060663566606 -0.011247441782052957 0.039341921414837569 0.015109200290918565 0.017565457706273987 -0.039023795266150796 -0.060101383026794464
leaf_weight=113.39054070413113 181.85957336425781 81.503141492605209 92.913589030504227 44.26765476167202 25.207235664129257 58.5538000613451 9.7818415611982363 22.648841515183449 114.501280605793 15.135847017168997 65.965253233909607 17.744150504469872 80.98479537665844 107.25968623161316 17.250371903181076 31.259118169546127 10.458011552691458 14.570948421955107 19.098470345139503 34.619906261563301 30.921367138624191 28.67515330016613 54.297780424356461 91.661122962832451 22.880908295512199 7.434918299317359 14.866916462779047 16.362924754619598 100.45846092700958 6.1000487208366385
leaf_count=496 800 349 393 190 110 253 42 98 498 65 288 77 346 465 73 133 45 63 81 146 132 125 231 401 98 32 64 71 426 26
internal_value=0.000791119 -0.00886202 -0.0182902 -0.00926121 0.0107312 0.0205787 -0.0369141 -0.0176799 0.0261496 -0.00894718 0.0202207 0.0100555 -0.0205234 0.00834286 -0.0174223 -0.0259602 0.0178381 -0.000757025 -0.0418807 -0.0331385 -0.0162692 -0.00689458 -0.0240359 0.0199753 -0.00928713 -0.00208339 -0.00910753 0.00125506 -0.0338029 -0.0215305
internal_weight=1532.63 1030.11 695.456 468.382 334.651 502.526 227.075 316.854 398.48 108.876 225.775 112.385 294.206 151.527 83.669 212.702 216.62 104.046 200.93 108.016 45.4923 46.4193 73.3963 206.162 66.4186 51.2828 43.8479 26.1448 131.718 28.981
internal_count=6617 4425 2971 2007 1454 2192 964 1352 1744 468 986 490 1254 655 358 905 944 448 851 458 195 202 312 899 285 220 188 113 559 124
is_linear=0
shrinkage=0.03


Tree=3
num_leaves=31
num_cat=0
split_feature=7 27 8 9 26 26 8 9 13 8 27 25 7 20 25 26 26 16 26 16 27 27 25 7 26 21 25 9 27 8
split_gain=307.947 194.521 110.244 98.734 72.4268 71.393 38.7291 33.3632 33.261 32.4117 31.7913 28.5804 28.4251 22.1323 19.5046 19.352 18.7352 21.6097 18.5747 20.201 17.7334 17.2696 16.7263 16.6498 17.4505 16.5016 14.5638 14.5372 14.4252 15.2624
threshold=-0.3550112462537664 0.52686228844886596 1.0000000180025095e-35 1.0000000180025095e-35 0.28494469762650493 1.2254026202430195 -0.56079423244679449 0.08562256568300218 1.7136565775195021 -0.72555277608228463 1.3293875596238955 0.66074333229888282 -1.1641536382281121 -1.8110549328859828 1.1095251829358983 -0.34880096981305325 -0.67828026161889887 -0.37446570689953601 1.5900028175227559 -0.25938956116225675 -0.7343324319081882 -0.69961606223186068 0.46688178457473001 -0.9497654830896104 -0.20360578180158098 -1.2609749229226697 -0.48639803080899763 0.19172518304437294 -0.81648526105095887 0.29595019445775411
decision_type=2 2 2 2 2 2 2 2 2 2 2 2 2 2 2 2 2 2 2 2 2 2 2 2 2 2 2 2 2 2
left_child=3 2 4 9 8 6 -3 10 11 21 -8 13 -5 -2 25 22 -15 20 19 -6 -18 -1 28 -11 -25 -14 -21 -22 -4 -30
right_child=1 5 15 12 18 -7 7 -9 -10 23 -12 -13 14 16 -16 -17 17 -19 -20 26 27 -23 -24 24 -26 -27 -28 -29 29 -31
leaf_value=0.038411886125092574 -0.07067414340470049 -0.049829600067761846 0.031974165869088383 0.021271653079115504 0.015409101451163285 0.0078422217932867487 -0.0067488055564334602 -0.046021496044157797 0.01878069923894099 0.037525929537776948 -0.042244258397181246 0.0013240505514081958 0.029834899939925462 -0.032862034478638801 0.018341988491696611 0.023635076807475369 0.025972091996199938 -0.027913206770012029 0.03108589261059818 -0.029970164706558049 -0.003858132823772641 -0.0027555250975088621 0.028009132510300912 0.013141710846130951 0.0325639666014736 -0.01892562572850582 0.0012372075480342011 -0.034904109613987488 -0.039678086858263219 -7.0179380064264193e-05
leaf_weight=11.602058902382849 8.5314930379390699 98.001932948827744 8.0610016882419568 35.855401873588562 65.531082198023796 40.593843176960945 80.261729910969734 51.231269553303719 22.527426511049271 162.43241260945797 31.670258074998856 51.634658455848694 6.7502343952655783 85.03336039185524 18.738827168941498 146.70136933028698 13.597071737051008 69.409011840820312 27.051909923553467 19.439943104982376 56.788175255060196 43.768931537866592 19.455482348799706 73.927070379257202 95.312092810869217 83.693155258893967 43.742662712931633 17.837991863489151 12.461281910538672 29.446326270699501
leaf_count=51 36 410 35 157 284 176 344 215 98 721 134 221 29 360 81 643 58 294 118 84 241 191 85 326 422 357 189 75 54 128
internal_value=0.000771382 -0.00904751 -0.000338762 0.0192069 -0.00833395 -0.0291701 -0.0349231 -0.0259697 -0.0163877 0.0271178 -0.016792 -0.0190038 -0.00190393 -0.0231823 -0.00951479 0.0174596 -0.0215126 -0.0153902 0.00848845 0.00373912 -0.0055379 0.00587041 0.00441012 0.030665 0.0240799 -0.0152864 -0.00836464 -0.0112791 -0.00477825 -0.0118476
internal_weight=1531.09 999.009 697.25 532.08 481.125 301.759 261.165 163.163 325.359 387.043 111.932 302.832 145.038 251.197 109.182 216.125 242.666 157.632 155.766 128.714 88.2232 55.371 69.4241 331.672 169.239 90.4434 63.1826 74.6262 49.9686 41.9076
internal_count=6617 4282 3003 2335 2058 1279 1103 693 1383 1711 478 1285 624 1064 467 945 1028 668 675 557 374 242 302 1469 748 386 273 316 217 182
is_linear=0
shrinkage=0.03


Tree=4
num_leaves=31
num_cat=0
split_feature=8 7 27 26 9 9 26 7 13 7 7 6 25 9 27 27 12 12 26 13 26 27 10 25 25 27 27 10 6 6
split_gain=293.761 185.563 112.716 67.732 62.7346 61.0008 40.7057 33.9166 32.5025 25.616 24.6204 23.4212 23.3316 22.8883 21.5233 21.2716 20.6284 19.0333 18.7167 17.8193 16.7337 16.5017 16.1884 15.1138 13.4047 12.9611 12.1896 12.1686 12.0996 11.4467
threshold=1.0000000180025095e-35 -0.32043251155400804 0.52686228844886596 0.28494469762650493 0.050255026562545262 1.0000000180025095e-35 1.2254026202430195 -0.15445458499516787 1.7136565775195021 -1.1641536382281121 -0.9774284708494172 -0.19778383030855065 -0.097148466480974333 -0.30342036464202377 0.76239448484527206 -0.38068891000551563 -0.58944676334629109 0.12081650466823984 -0.017537776103129305 0.8803549992514903 -1.0421240209560476 0.42424584381663338 -0.10619578940725442 1.5163291393806753 -0.45281571545520705 1.4936360849303074 1.1597633931404643 0.2261236211482453 -0.86687728467767433 -0.3042305162309113
decision_type=2 2 2 2 2 2 2 2 2 2 2 2 2 2 2 2 2 2 2 2 2 2 2 2 2 2 2 2 2 2
left_child=1 4 3 8 10 7 12 -2 13 -6 -1 -5 19 24 28 17 -7 -15 21 -4 -9 -12 -14 -17 29 -22 -18 -8 -11 -3
right_child=5 2 6 11 9 16 27 20 -10 14 18 -13 22 15 -16 23 26 -19 -20 -21 25 -23 -24 -25 -26 -27 -28 -29 -30 -31
leaf_value=0.032230532542581007 0.033467889838992904 -0.061325870338153336 -0.048549659732485637 -0.010443932706678906 0.018195427848916458 0.017785765956228248 -0.025363062934199852 -0.014509645877092027 0.018317559892207406 -0.032096393722333971 0.0091902477335433375 0.01550568919169505 -0.041284770740337845 0.0036608791395287762 -0.046048655877319607 -0.033647467266798702 -0.0062975769499068312 -0.025525081240948589 0.023479498725425995 -0.021813643005103633 0.02017283444676081 -0.023914480840479278 -0.0039896760399988906 0.021462196361716271 0.0031504462644820516 -0.022023640671539731 -0.049817399677902705 0.016928192578106106 -0.0017018585421657913 -0.013123690483047385
leaf_weight=82.541384965181351 207.07512560486794 5.4472408294677761 134.06919255852699 44.346961215138435 24.905190318822861 35.641184538602829 9.8276634365320223 15.055624693632124 22.405958071351051 15.293452337384222 58.302517771720886 106.42656031250954 17.74622531235218 36.943164944648743 17.501216620206833 128.29341530799866 61.978344082832336 44.133944377303123 64.410156711935997 26.944787085056305 163.73678183555603 17.655312538146973 25.563904196023941 4.6408148407936087 53.592663675546646 6.8244434148073188 6.38952912390232 16.244777083396912 51.419623330235481 23.835169836878777
leaf_count=369 928 23 556 190 110 154 42 65 98 65 256 465 74 157 73 537 267 187 285 113 722 76 108 20 229 29 27 71 220 101
internal_value=0.000752316 -0.00836762 -0.0171239 -0.0086987 0.010105 0.0197099 -0.0343134 0.0251206 -0.0165241 -0.00853304 0.0192287 0.00787314 -0.0388178 -0.0191536 -0.0164376 -0.0243371 -0.000718373 -0.0122264 0.0115832 -0.0440755 0.0158083 0.00149553 -0.0192713 -0.0317236 -0.00576798 0.0184845 -0.0103649 0.00098706 -0.00866957 -0.0220905
internal_weight=1529.19 1032.49 700.462 470.066 332.029 496.701 230.397 392.692 319.292 109.119 222.909 150.774 204.324 296.886 84.2143 214.011 104.009 81.0771 140.368 161.014 185.617 75.9578 43.3101 132.934 82.8751 170.561 68.3679 26.0724 66.7131 29.2824
internal_count=6617 4425 2971 2007 1454 2192 964 1744 1352 468 986 655 851 1254 358 901 448 344 617 669 816 332 182 557 353 751 294 113 285 124
is_linear=0
shrinkage=0.03


Tree=5
num_leaves=31
num_cat=0
split_feature=8 25 27 9 21 9 6 27 8 25 23 27 12 27 9 11 12 2 12 15 25 27 6 8 10 22 12 8 22 27
split_gain=301.871 185.399 125.338 84.4946 57.2705 55.6328 42.3708 28.4615 27.8772 24.8336 24.7501 22.1 21.8442 21.5377 20.5347 22.5777 20.2158 20.1058 19.5083 18.5809 18.185 20.1634 16.4352 16.5944 14.1509 13.9207 13.3179 24.1431 12.9109 12.5799
threshold=1.0000000180025095e-35 0.58594635719271382 0.72905230032608459 0.050255026562545262 -2.283269786560143 1.0000000180025095e-35 0.50932629760427317 -0.52139343569627361 -0.98916644589906888 0.88895042981668426 -0.6774946108212726 2.0090075644085066 -0.23023315653434451 1.4936360849303074 0.050255026562545262 -0.35863690947871169 0.47186616587082403 0.1437905595214215 0.15347228710568941 0.3916949671803035 1.4125292555598692 0.69855255636337477 -0.25100717326973093 -0.9067871740813237 -0.66006147366642043 -0.78034619859159393 0.31675119929293805 -1.0550698633532647 0.73221832102244699 0.24139803130315465
decision_type=2 2 2 2 2 2 2 2 2 2 2 2 2 2 2 2 2 2 2 2 2 2 2 2 2 2 2 2 2 2
left_child=1 2 3 4 -1 13 7 -6 17 29 19 14 22 16 15 -4 -2 -3 -8 -5 21 -10 23 -9 -18 -12 27 -17 -16 -7
right_child=5 8 11 10 6 9 18 12 20 -11 25 -13 -14 -15 28 26 24 -19 -20 -21 -22 -23 -24 -25 -26 -27 -28 -29 -30 -31
leaf_value=0.042965683071504591 0.029986985046249404 0.014363117641059055 0.007012571569034373 0.011357212197473938 0.0074780901432822695 0.0041933453757186396 0.027050163833695465 -0.03884606530354226 0.01775036744928616 0.030927890425670932 -0.053553254092671733 -0.064420797479895112 -0.026174424362645266 -0.021497656894209738 -0.052507115837349433 -0.045411581391547204 -0.01952447990170569 -0.02116975524489886 0.0021666728985973369 -0.036887243348992148 0.033735631285759474 -0.023796607081270033 0.009950295397535773 -0.0047569832291175802 0.017850963315606237 -0.028042709412765043 -0.040908008818428349 -0.0042695918545817089 -0.016419632629299959 -0.018210521889640306
leaf_weight=24.603984355926514 295.21182902157307 28.52368175983429 16.923334166407585 23.037684470415115 55.017193093895912 53.283026039600372 38.043721899390221 19.243280962109566 105.424217030406 20.889572888612747 23.410171911120415 21.383354857563972 106.4431090503931 8.6361081302165967 51.664361119270325 20.649048492312431 10.580867648124693 28.805090963840485 111.34908179938793 10.441062286496161 61.669801041483879 11.677540197968481 35.033073544502258 38.696710392832756 65.898939549922943 108.37027028203011 53.392751798033714 33.931561499834061 10.785054340958593 39.115868896245956
leaf_count=110 1326 124 73 99 238 231 166 82 460 91 99 89 453 37 213 86 47 124 479 44 273 50 151 166 293 457 223 144 45 166
internal_value=0.000525904 -0.00865469 -0.0155304 -0.00850005 -0.00147097 0.0198409 -0.00417837 -0.0116246 0.0147132 0.00138747 -0.0267228 -0.0355267 -0.0168948 0.0253377 -0.0322287 -0.0252056 0.0264259 -0.00349053 0.00850339 -0.00368885 0.0205508 0.0136072 -0.0062708 -0.0160788 0.0126801 -0.0325745 -0.0302553 -0.0198345 -0.0462748 -0.00529104
internal_weight=1532.14 1038.52 802.419 593.689 428.43 493.616 403.826 254.433 236.1 113.288 165.259 208.729 199.416 380.328 187.346 124.897 371.692 57.3288 149.393 33.4787 178.772 117.102 92.9731 57.94 76.4798 131.78 107.973 54.5806 62.4494 92.3989
internal_count=6639 4448 3417 2544 1845 2191 1735 1090 1031 488 699 873 852 1703 784 526 1666 248 645 143 783 510 399 248 340 556 453 230 258 397
is_linear=0
shrinkage=0.03


Tree=6
num_leaves=31
num_cat=0
split_feature=8 25 27 26 21 9 9 26 27 7 8 7 26 25 7 27 6 26 10 7 6 25 9 26 13 12 13 0 4 13
split_gain=285.327 174.221 116.708 81.7708 75.2016 60.8269 53.1706 39.9707 36.8308 33.4727 29.842 28.0485 24.0348 23.5568 21.6106 19.9738 17.8683 18.1878 19.8754 17.342 17.5586 16.3946 16.3743 16.1589 15.223 14.8177 14.4151 14.8933 18.2765 14.2633
threshold=1.0000000180025095e-35 0.58594635719271382 0.72905230032608459 1.1720605270631417 -2.283269786560143 -0.30342036464202377 1.0000000180025095e-35 0.7086571048441096 -0.37202668875635148 -0.90827100144990036 -0.98916644589906888 -0.75612456877096346 -0.34880096981305325 0.88895042981668426 -1.0327544463690306 0.52686228844886596 -0.045717136133749843 0.53886706621143943 0.33689675800007857 -0.2512750421544912 1.1023864048859966 -0.022351491374804865 -0.33878790376248075 1.8475556331370158 0.11847927054930835 1.1494736514479056 0.084466961232246632 -0.21520238244019521 -0.7714610645999519 0.8803549992514903
decision_type=2 2 2 2 2 2 2 2 2 2 2 2 2 2 2 2 2 2 2 2 2 2 2 2 2 2 2 2 2 2
left_child=1 2 3 4 -1 19 11 21 12 -3 -11 -2 -7 14 -8 25 17 -10 -19 -6 -21 24 -9 -24 -4 -13 27 28 -16 -18
right_child=6 9 7 -5 5 8 13 22 16 10 -12 15 -14 -15 26 -17 29 18 -20 20 -22 -23 23 -25 -26 -27 -28 -29 -30 -31
leaf_value=0.034118263848340484 0.037253651838408432 0.032389204977042056 -0.054010149178082861 0.022054703876482035 0.018573271426406458 -0.021871862800219629 0.037386986915532536 0.01162190903814172 -0.040823759683074806 -0.013321394886416796 0.014983630372107754 0.025956794962659437 0.0063400962670777834 0.030276064368273698 -0.030015170670240423 0.0023939263259188663 -0.024986164556248452 -0.031423861363813921 0.037602119902354653 -0.011745219856306287 0.017942981721987335 -0.019257351158712639 -0.031424140745984319 0.028511979577995214 -0.033027197038844346 -0.001284397483965506 0.004784561773994586 -0.038806882728836867 0.019897403853263364 0.0013120175181108027
leaf_weight=29.613903716206551 113.58877834677696 66.361400470137596 82.117418095469475 70.697599366307259 39.078110113739967 52.327216893434525 9.6398823261260969 17.827525600790977 106.19535453617573 46.152411758899689 122.50522629916668 193.50114826858044 56.548299983143806 20.701989099383354 13.396190524101256 50.198096483945847 99.388445898890495 10.549669176340105 5.828568071126937 78.277800053358078 23.256089523434639 24.31928439438343 30.985037565231323 4.6567613631486884 50.104625731706619 19.810819834470749 34.387623816728592 22.05984753370285 13.019636407494547 22.823936507105827
leaf_count=133 522 299 338 311 172 222 42 76 445 198 534 871 243 91 57 222 418 45 25 333 100 102 130 20 207 88 148 94 56 97
internal_value=0.000513759 -0.00838348 -0.0150209 -0.00823046 -0.0123174 -0.0150995 0.019379 -0.034246 -0.0217355 0.0143399 0.00723809 0.0247919 -0.007219 0.00134804 -0.00512599 0.0194201 -0.0281921 -0.0362855 -0.0068594 0.00159092 -0.00494521 -0.0418951 -0.0118519 -0.0235932 -0.0460588 0.0234268 -0.0100717 -0.0206105 -0.00541463 -0.0200748
internal_weight=1529.92 1039.61 804.596 594.585 523.887 494.273 490.304 210.011 353.661 235.019 168.658 377.099 108.876 113.205 92.5032 263.51 244.786 122.574 16.3782 140.612 101.534 156.541 53.4693 35.6418 132.222 213.312 82.8633 48.4757 26.4158 122.212
internal_count=6639 4448 3417 2544 2233 2100 2191 873 1495 1031 732 1703 465 488 397 1181 1030 515 70 605 433 647 226 150 545 959 355 207 113 515
is_linear=0
shrinkage=0.03


Tree=7
num_leaves=31
num_cat=0
split_feature=8 25 27 26 21 9 9 26 27 7 8 7 26 25 7 27 6 12 7 6 13 9 26 26 14 10 26 18 26 16
split_gain=269.776 163.792 108.804 77.0492 71.0144 56.8034 50.8161 37.1122 34.2583 32.0956 28.1534 27.2465 22.494 22.3486 20.4747 19.0905 16.879 19.6555 16.395 16.5304 15.3367 15.3355 15.1273 14.7282 15.187 15.5472 14.3609 14.0415 13.8025 13.5811
threshold=1.0000000180025095e-35 0.58594635719271382 0.72905230032608459 1.1720605270631417 -2.283269786560143 -0.30342036464202377 1.0000000180025095e-35 0.7086571048441096 -0.37202668875635148 -0.90827100144990036 -0.98916644589906888 -0.75612456877096346 -0.34880096981305325 0.88895042981668426 -1.0327544463690306 0.52686228844886596 0.59296297940041387 0.42288249221464952 -0.2512750421544912 1.1023864048859966 0.11847927054930835 -0.33878790376248075 1.8475556331370158 0.7086571048441096 0.15034375797865504 -0.88160774737008696 0.64071148345579598 -0.14650329538329651 0.62684663781597816 -1.0054004369763432
decision_type=2 2 2 2 2 2 2 2 2 2 2 2 2 2 2 2 2 2 2 2 2 2 2 2 2 2 2 2 2 2
left_child=1 2 3 4 -1 18 11 20 12 -3 29 -2 -7 14 -8 23 17 28 -6 -20 -4 -9 -23 24 25 -13 27 -16 -10 -11
right_child=6 9 7 -5 5 8 13 21 16 10 -12 15 -14 -15 26 -17 -18 -19 19 -21 -22 22 -24 -25 -26 -27 -28 -29 -30 -31
leaf_value=0.033480455062439962 0.036642526675670813 0.031770724468319189 -0.04749844514335276 0.021538932141759237 0.018119500376806909 -0.021107802711780553 0.036671265300852997 0.011305188417530454 -0.029921409068334313 -0.057645947723502518 0.014597574494060584 -0.036336015136077045 0.0061602016828306728 0.029644929784077553 0.0034994214396307189 0.0023238348215923479 -0.013745766881603384 -0.05045957766820966 -0.011360624630435343 0.017489012316093962 -0.028076343470514475 -0.030289508889100085 0.027867808906518205 0.036804061136872721 0.02757819023584546 0.012966506178903464 0.012692826765968158 -0.026552452793890097 -0.00045624639235138282 -0.0069816712100588046
leaf_weight=29.277821093797684 112.04217939078808 65.634714305400848 99.758312240242958 70.226022273302078 38.858415365219116 52.590596228837967 9.5347799062728864 17.777926474809647 127.67321120202541 5.3889430016279212 121.98076902329922 6.2490520924329749 56.455108776688576 20.511351346969604 20.837402105331421 50.161373540759087 62.657784298062325 39.723086938261986 78.496530473232269 23.145655781030655 57.788923025131226 31.178309559822083 4.6220009922981253 51.832700684666634 80.513245731592178 73.031764551997185 19.609437495470047 42.601373210549355 16.114043578505516 40.91971530020237
leaf_count=133 522 299 409 311 172 222 42 76 532 23 534 28 243 91 89 222 264 165 333 100 238 130 20 237 365 329 84 182 69 175
internal_value=0.000502188 -0.00812431 -0.014536 -0.00797279 -0.0119205 -0.0146019 0.0189319 -0.0330394 -0.0209888 0.013977 0.00703719 0.0242625 -0.00699062 0.0013118 -0.00496528 0.0189639 -0.0271896 -0.0317798 0.00154533 -0.00479107 -0.0403743 -0.0114708 -0.0227811 0.0229081 0.0184006 0.0090804 -0.00974558 -0.0166815 -0.0266193 -0.0128775
internal_weight=1527.19 1040.27 806.344 595.218 524.992 495.714 486.925 211.125 355.214 233.924 168.289 373.83 109.046 113.094 92.583 261.788 246.168 183.51 140.501 101.642 157.547 53.5782 35.8003 211.627 159.794 79.2808 83.0482 63.4388 143.787 46.3087
internal_count=6639 4448 3417 2544 2233 2100 2191 873 1495 1031 732 1703 465 488 397 1181 1030 766 605 433 647 226 150 959 722 357 355 271 601 198
is_linear=0
shrinkage=0.03


Tree=8
num_leaves=31
num_cat=0
split_feature=8 25 27 26 26 21 7 27 7 26 8 10 27 27 20 27 11 24 3 26 27 26 17 25 18 0 26 25 24 11
split_gain=255.13 154.048 103.255 69.1521 46.3078 47.1424 46.067 35.9398 30.7846 27.4923 26.5603 24.7849 27.6554 22.6285 22.468 21.8891 19.9608 16.0272 15.758 15.7063 15.6989 16.3578 15.4278 14.1584 13.4765 13.2373 12.512 13.0304 12.4346 12.3945
threshold=1.0000000180025095e-35 0.58594635719271382 0.10370560921375209 0.53886706621143943 0.18699666417551011 -2.283269786560143 -0.90827100144990036 0.10370560921375209 -0.90827100144990036 0.61734956867506774 -0.98916644589906888 0.11535048429641205 1.9654565812665556 0.78203472932418139 -1.1618143066098765 1.5167133721930262 -1.1975564683120068 -1.1825313066496062 1.5264249683474616 0.43101319577564612 -0.54168110426636795 -0.34880096981305325 -0.70891401680972976 0.52107142980470933 1.0595179078855679 0.35095485019904965 0.26072807221177091 1.0919707908191438 -0.68164532083054474 -0.35863690947871169
decision_type=2 2 2 2 2 2 2 2 2 2 2 2 2 2 2 2 2 2 2 2 2 2 2 2 2 2 2 2 2 2
left_child=1 2 4 13 5 -1 -2 19 -3 15 25 -5 -13 16 -7 28 -4 -6 20 23 21 -16 -19 24 -8 -10 27 -12 -9 -15
right_child=6 8 3 11 17 14 7 9 10 -11 26 12 -14 29 18 -17 -18 22 -20 -21 -22 -23 -24 -25 -26 -27 -28 -29 -30 -31
leaf_value=0.034714993780550998 0.035599763418471445 0.031171535830589084 0.034305392203424052 -0.021527289962615208 0.03037671294573362 -0.040327097106936764 0.013007829153867806 -0.022790785608860709 0.0043401006634221249 0.020992013826320374 -0.0039058956685111635 0.010779948439090734 -0.061997775944094245 -0.015645358031340265 -0.011227449409409788 -0.053873553166080924 -0.026598782562808475 0.024402143881497296 0.022249600839965019 0.0328104754113549 -0.019253943240945221 0.021765603833438622 -0.001256159788327049 0.028394821522008121 -0.021976583234216088 -0.027724763955422168 0.028695809054895539 0.019698008690713021 0.0033036392952626192 -0.044748952536393272
leaf_weight=19.083597674965858 109.61351339519024 64.900643810629845 4.9876530319452277 50.515099838376045 30.54604509472847 26.524975746870041 89.683988928794861 21.175266444683075 22.127856984734535 47.573698952794075 42.385302394628525 68.351334273815155 5.0461406707763663 14.871728762984274 42.969151616096497 8.116612955927847 167.14600470662117 28.974777117371559 12.096273005008696 70.626155182719231 124.32484145462513 19.73671917617321 77.510143235325813 52.163001254200935 11.140977293252943 24.325321927666664 37.259772822260857 41.814964905381203 73.423257440328598 115.07634121179581
leaf_count=88 513 299 22 213 135 111 401 93 95 213 184 296 21 62 182 34 696 128 51 324 522 85 337 238 50 103 166 184 325 468
internal_value=0.000490921 -0.00787599 -0.0140729 -0.0242268 -0.00274272 -0.010561 0.0184973 0.0134836 0.0136246 0.00213828 0.00684247 -0.00535441 0.00577642 -0.0319682 -0.01439 -0.00659404 -0.0248341 0.0112206 -0.010935 0.0211086 -0.0130813 -0.000842862 0.00572552 0.0157065 0.00914211 -0.0124507 0.0142213 0.00781612 -0.00253743 -0.0414182
internal_weight=1524.09 1040.57 807.761 425.994 381.767 244.736 483.516 373.903 232.814 150.289 167.913 123.913 73.3975 302.082 225.652 102.715 172.134 137.031 199.127 223.614 187.031 62.7059 106.485 152.988 100.825 46.4532 121.46 84.2003 94.5985 129.948
internal_count=6639 4448 3417 1778 1639 1039 2191 1678 1031 665 732 530 317 1248 951 452 718 600 840 1013 789 267 465 689 451 198 534 368 418 530
is_linear=0
shrinkage=0.03


Tree=9
num_leaves=31
num_cat=0
split_feature=8 25 9 27 26 9 7 26 26 7 7 8 27 23 7 11 25 25 16 27 6 26 15 16 12 27 24 7 26 6
split_gain=241.267 144.989 101.252 67.1177 48.9732 48.4422 33.7401 36.149 32.0466 28.9795 25.6729 25.2277 25.0506 23.127 21.6447 21.2107 22.0825 20.8472 18.3216 17.789 17.5436 17.1232 16.8769 16.7587 15.585 15.495 15.412 15.2831 14.2454 14.1323
threshold=1.0000000180025095e-35 0.5752610750346896 0.050255026562545262 0.10370560921375209 0.58543524182572149 1.0000000180025095e-35 -0.81836629123052862 0.19931718630425904 1.5900028175227559 -1.0673331810687887 -0.75612456877096346 -0.98916644589906888 0.78203472932418139 -0.6774946108212726 0.59936183145956512 -0.35863690947871169 -0.48029215529012631 1.3499440314914419 -0.37446570689953601 1.4936360849303074 -0.51712388807563248 0.1712549468323569 -0.054267605900227556 -1.053018152453838 1.0270144673074688 0.98324739100431346 -1.2309553294478233 -1.0327544463690306 1.5245551490442435 0.94271637600245572
decision_type=2 2 2 2 2 2 2 2 2 2 2 2 2 2 2 2 2 2 2 2 2 2 2 2 2 2 2 2 2 2
left_child=1 2 3 6 15 10 -1 18 12 -3 -2 23 13 21 -6 -5 -17 27 20 24 -8 22 -4 -11 -12 -13 -9 -7 -16 -26
right_child=5 9 8 4 14 17 7 26 -10 11 19 25 -14 -15 28 16 -18 -19 -20 -21 -22 -23 -24 -25 29 -27 -28 -29 -30 -31
leaf_value=0.034628043635347848 0.035547440871313403 0.034000892331017198 0.014966106039251434 -0.0012208920485788858 0.015892882689610591 0.027986244849202382 -0.035757209680587126 0.037893888232400148 0.018720488657984129 -0.06405649114952594 0.022242565887762886 0.016460841042807064 -0.048632374986763489 -0.032003432557976698 -0.027702724042194142 -0.038312445067879619 -0.016875984909700693 0.041829353142153823 -0.020984278769755432 -0.027689787852013655 0.0050986126964283895 0.026324688615373442 -0.03952980237826894 -0.0048725811388982557 -0.020959216996736522 -0.033352508652401462 0.0083941560585364932 -0.00753786197432222 0.013449041352839421 0.020954470991309929
leaf_weight=28.544647872447968 109.05982658267021 47.425592944025993 8.124729722738266 29.346281185746193 47.052635625004768 12.403458431363104 10.792546465992926 20.095349326729774 11.541095450520514 4.7593619972467414 222.24154417216778 132.79743179678917 62.884663090109825 131.95693270862103 24.723819524049759 97.257434412837029 77.884721383452415 10.158411756157873 64.98990586400032 7.3878143876790991 76.563558787107468 11.147480249404905 13.804671615362167 45.204976305365562 15.299981147050859 5.8684549629688254 77.066903382539749 89.894430935382843 10.912235900759695 13.743707299232481
leaf_count=132 522 222 35 125 205 56 45 90 50 20 1020 590 254 547 104 398 323 46 273 31 326 48 57 193 68 25 338 386 48 62
internal_value=0.000479783 -0.00763634 -0.0137011 -0.00677458 -0.0169468 0.0180704 0.00373144 0.000196758 -0.0300506 0.0130376 0.0233397 0.00776703 -0.0325202 -0.0263808 0.00253534 -0.0248248 -0.0287798 0.000839741 -0.00892252 0.0181927 5.10163e-05 -0.00394978 -0.0193394 -0.0105102 0.0195417 0.0143527 0.0144954 -0.00323062 -0.0151015 -0.00112532
internal_weight=1520.93 1040.75 804.69 565.23 287.177 480.189 278.053 249.508 239.46 236.056 367.733 188.63 227.918 165.034 82.6887 204.488 175.142 112.456 152.346 258.673 87.3561 33.0769 21.9294 49.9643 251.285 138.666 97.1623 102.298 35.6361 29.0437
internal_count=6639 4448 3398 2407 1203 2191 1204 1072 991 1050 1703 828 941 687 357 846 721 488 644 1181 371 140 92 213 1150 615 428 442 152 130
is_linear=0
shrinkage=0.03


Tree=10
num_leaves=31
num_cat=0
split_feature=7 8 26 9 27 25 20 25 27 26 27 25 9 15 12 6 18 9 9 27 9 8 7 19 27 6 12 18 9 27
split_gain=232.818 134.428 94.4557 82.4917 80.4912 33.8817 30.483 29.0164 30.591 34.342 25.8989 25.5745 24.2276 20.8153 20.6325 19.9704 19.9375 18.8017 17.8318 16.6956 16.5734 16.2083 15.5184 15.2507 15.0415 14.7387 13.9231 13.3533 14.7045 12.6037
threshold=-0.3550112462537664 0.21357092264000901 1.1054989225178817 1.0000000180025095e-35 0.53313903768218485 1.1095251829358983 -1.985850486114165 0.74851529288265262 -0.7343324319081882 -0.61352355719453355 -0.48204739828285553 0.27302023685057736 0.33319533952620056 -0.9461927520612895 -0.29554472140924376 -0.31943718564839135 -1.0236096250333795 -0.37415544288293762 0.52771680468871363 0.82201719933466511 0.29782780040574369 -0.56079423244679449 -1.1226591565884021 -0.91769563150839295 0.15978757242657821 -1.3610940407457768 0.19429201515250155 0.18241157823548462 0.08562256568300218 1.2526162176306099
decision_type=2 2 2 2 2 2 2 2 2 2 2 2 2 2 2 2 2 2 2 2 2 2 2 2 2 2 2 2 2 2
left_child=3 2 4 10 6 13 -2 8 -8 23 -1 20 -3 -5 -14 -11 22 -17 -4 25 21 -6 -12 -10 -16 -15 -23 -19 -29 -18
right_child=1 12 18 5 11 -7 7 -9 9 15 16 -13 14 19 24 17 29 27 -20 -21 -22 26 -24 -25 -26 -27 -28 28 -30 -31
leaf_value=0.034894312774583464 -0.055506275401461809 0.018897877302832346 0.020108938592254391 0.020654386522925085 -0.041160470340319603 0.027118178585999062 0.0057346124572394564 0.0093751793638302723 -0.0012746079134549708 -0.023427726823511665 0.027703937622570667 -0.0055399223459674405 0.019809383586677862 -0.054442651882674102 -0.0041245493220700277 0.0092720002212242705 0.022898445342556552 -0.0041338145077399295 -0.018290333324243228 -0.04187316439536351 -0.048815150249872361 -0.0072031895236803166 -0.023956442773259663 -0.036274925959562415 -0.052242826956787287 -0.0059157929538707771 -0.032602213328371793 -0.011830845322368009 -0.048393785412969889 -0.007675411510264022
leaf_weight=127.5750789642334 13.202024683356283 160.07517500221729 79.593060120940208 16.899026274681091 65.092531502246857 27.253894880414009 71.015916213393211 64.808199167251587 13.014652773737906 72.484971672296524 7.6480937004089382 28.963294312357903 15.242939591407774 6.0958681404590598 13.553930237889292 58.070971459150314 202.21620859205723 78.974062263965607 12.608189791440962 17.588537454605103 60.620623722672462 36.034011527895927 16.57451257109642 80.550820961594582 10.282166704535483 74.176672056317329 42.139802291989326 27.710296034812927 15.401605337858198 12.90968646109104
leaf_count=605 55 731 355 74 263 124 305 285 55 304 36 121 66 26 59 251 938 334 54 72 244 149 73 334 43 318 173 118 64 58
internal_value=-0.000108326 -0.00838138 -0.0137492 0.0164632 -0.0173719 -0.00295085 -0.0105322 -0.00930041 -0.0122013 -0.0158805 0.0239772 -0.0319188 0.0137279 -0.0100918 -0.00744952 -0.0101304 0.0181583 -0.00478032 0.014858 -0.0154012 -0.0356661 -0.0301023 -0.00764509 -0.0314065 -0.0248813 -0.00960091 -0.0208946 -0.0114644 -0.0248929 0.0210637
internal_weight=1528.38 1019.44 820.285 508.938 728.084 142.014 495.234 482.031 417.223 346.207 366.924 232.85 199.154 114.76 39.079 252.642 239.349 180.157 92.2012 97.8611 203.887 143.266 24.2226 93.5655 23.8361 80.2725 78.1738 122.086 43.1119 215.126
internal_count=6687 4363 3464 2324 3055 614 2105 2050 1765 1460 1710 950 899 490 168 1071 1105 767 409 416 829 585 109 389 102 344 322 516 182 996
is_linear=0
shrinkage=0.03


Tree=11
num_leaves=31
num_cat=0
split_feature=7 26 27 9 25 26 25 25 6 12 27 27 9 15 9 18 9 26 2 27 27 27 7 27 24 6 17 19 27 26
split_gain=220.098 107.969 112.182 78.7 41.1434 39.3315 32.0643 31.4581 25.4458 25.1761 25.167 22.2971 21.319 19.5818 19.5476 18.9683 18.2455 18.5892 17.0996 16.7736 15.6015 15.5644 14.6128 14.0914 14.5171 13.6512 13.5355 12.0496 12.0184 11.7221
threshold=-0.3550112462537664 1.1054989225178817 0.53313903768218485 1.0000000180025095e-35 0.7653064505595476 -0.60185988941319435 1.1095251829358983 0.27302023685057736 -0.32704052035713144 0.10448861344951497 -0.48204739828285553 -1.3153701362175738 0.52771680468871363 -0.9461927520612895 -0.37415544288293762 -1.0236096250333795 0.33319533952620056 -0.34880096981305325 0.64226449919569151 -0.54168110426636795 0.82201719933466511 1.8049683804025478 -1.0535016871888854 0.10370560921375209 -0.014301756642611251 -1.3610940407457768 -0.77143576640941858 0.90536374309787915 1.2526162176306099 0.37328532809337561
decision_type=2 2 2 2 2 2 2 2 2 2 2 2 2 2 2 2 2 2 2 2 2 2 2 2 2 2 2 2 2 2
left_child=3 2 4 10 5 11 13 16 9 18 -1 -2 -3 -5 -10 22 17 -4 26 -20 25 -19 -12 24 -16 -15 -7 -14 -17 -27
right_child=1 12 7 6 -6 8 -8 -9 14 -11 15 -13 27 20 23 28 -18 21 19 -21 -22 -23 -24 -25 -26 29 -28 -29 -30 -31
leaf_value=0.034330297276509138 0.026888795757406124 0.022684117002719748 -0.040922582606436414 0.020152916854407468 0.014309202677818735 0.029561945946376039 0.026558621620232103 -0.0015943448345142254 0.014066099040720474 -0.040443702664622695 0.023181733133163147 -0.023369440654019902 -0.034119598736725328 -0.052172785652236542 0.0089683319024976421 0.022402372436135902 -0.04513636450238992 -0.015611104183132326 0.021176663033788141 -0.041950915064754478 -0.040420679270028299 -0.052700063578612441 -0.025132033918344305 -0.016459968235157142 -0.012339458421789025 -0.013054335621424972 -0.0055949006879630284 0.023288792511845582 -0.0074269258316304321 0.01365993704149826
leaf_weight=125.80773368477821 8.3979365229606611 109.23281374573708 54.673666387796402 16.80143603682518 86.93929460644722 11.98572628200054 26.997173339128494 35.078808099031448 86.198669865727425 26.097227185964584 8.9002218246459979 147.19648878276348 10.123296752572058 6.1690810769796363 87.916931852698326 200.51915599405766 68.029259830713272 97.530946269631386 4.7548722177743938 18.632693365216255 17.672606647014618 11.37043412029743 15.353950023651121 52.081713557243347 42.779752314090729 53.917219012975693 55.465050578117371 4.8751391172409049 12.940878972411154 20.367124825716019
leaf_count=605 36 496 223 74 388 53 124 148 380 110 42 618 43 26 382 938 274 403 21 79 72 46 67 220 183 230 239 21 58 88
internal_value=-0.000103078 -0.00812902 -0.0117663 0.0160833 -0.00484797 -0.00792366 -0.0028623 -0.0280696 -0.00278983 -0.0144732 0.0234799 -0.0206568 0.0180791 -0.00977346 0.00228943 0.0177374 -0.0320796 -0.0266494 -0.00701209 -0.0291166 -0.0148975 -0.0194836 -0.00740299 -0.00326447 0.00199385 -0.00929106 0.000652327 -0.0154594 0.020594 -0.00572987
internal_weight=1524.81 1019.36 895.129 505.447 628.446 541.507 141.925 266.683 385.913 116.936 363.522 155.594 124.231 114.927 268.977 237.714 231.604 163.575 90.8383 23.3876 98.126 108.901 24.2542 182.778 130.697 80.4534 67.4508 14.9984 213.46 74.2843
internal_count=6687 4363 3803 2324 2709 2321 614 1094 1667 502 1710 654 560 490 1165 1105 946 672 392 100 416 449 109 785 565 344 292 64 996 318
is_linear=0
shrinkage=0.03


Tree=12
num_leaves=31
num_cat=0
split_feature=8 7 26 27 9 25 20 26 11 25 26 8 25 11 25 27 6 25 8 12 9 18 27 17 12 19 11 26 13 17
split_gain=210.484 140.897 83.4752 70.4959 57.2977 30.8418 27.7855 26.7194 26.2508 25.6326 25.0094 22.372 20.6944 19.7655 19.7221 17.7417 16.9834 18.5837 16.12 14.8466 24.3973 14.7444 13.5974 13.1035 12.5331 12.4055 15.72 12.5254 11.6627 10.6068
threshold=0.21357092264000901 -0.3688427401336698 1.1054989225178817 0.53313903768218485 1.0000000180025095e-35 -0.097148466480974333 -1.985850486114165 -0.34880096981305325 -0.35863690947871169 1.1095251829358983 0.46988662018759703 -0.9067871740813237 1.5163291393806753 -0.82470333105276461 -0.013192678096499176 0.15978757242657821 0.65378965707033421 0.37758335511124225 -0.79145619353648067 -0.23023315653434451 0.15635764392391602 0.12759243263235445 0.082685678570472876 0.84631450448252521 0.39022670977719975 -0.58186890460723761 0.75992250229901537 -0.34880096981305325 1.832699660129218 0.35395572638497713
decision_type=2 2 2 2 2 2 2 2 2 2 2 2 2 2 2 2 2 2 2 2 2 2 2 2 2 2 2 2 2 2
left_child=1 4 3 6 13 10 -3 8 -8 -6 21 -5 28 -1 25 -15 17 22 -4 -7 -21 -2 -9 29 -19 26 -13 -27 -10 -17
right_child=5 2 18 11 9 19 7 16 12 -11 -12 14 -14 15 -16 23 -18 24 -20 20 -22 -23 -24 -25 -26 27 -28 -29 -30 -31
leaf_value=0.032258462408654584 0.012572453806048435 -0.05271030337674986 -0.006066865883323831 -0.042079155282353051 -0.014627213202008226 0.033616870591880794 0.0031510160876077934 -0.0065449112056948019 -0.026165005068656547 0.023686620786886246 0.024251365090201423 0.015755686713961353 0.028179776427580037 0.021418706464875117 -0.0012276468771459602 0.00080119755666821708 0.0092703983436904312 0.013764298746089591 0.021958309798288826 0.024949722055430744 -0.018715569826889336 -0.011764606573541737 -0.02697019324728837 -0.021144241345880329 -0.025797868153939734 -0.047117620508401632 -0.042112328494866694 -0.024763909888137609 0.0066850569500923034 0.031695359543363326
leaf_weight=66.808359205722809 41.88179549574852 13.343958929181097 25.731450542807579 86.52747517824173 89.743734821677208 130.38408944010735 47.802702993154526 86.723453164100647 155.55041208863258 19.051494255661964 62.51458315551281 11.438268542289736 7.1031734198331824 92.946267560124397 30.163367107510567 37.954869747161865 78.886541724205017 45.325619131326675 65.472941413521767 63.678843542933464 14.058791875839232 48.175881579518318 44.326239094138145 17.436150595545769 8.5693204104900342 34.749510362744331 6.6995027363300315 64.311188891530037 10.375542670488356 13.580309227108954
leaf_count=319 189 55 114 348 379 626 202 370 647 88 292 47 32 435 126 170 341 199 295 301 61 215 185 78 37 140 27 262 45 62
internal_value=-9.80635e-05 -0.00631885 -0.0130123 -0.0163849 0.0100043 0.0199188 -0.0100042 -0.00882839 -0.0165276 -0.00791795 0.00967313 -0.0299708 -0.0219642 0.0185291 -0.0228611 0.0128643 -0.00238399 -0.00735506 0.0140516 0.0274299 0.0170529 -0.000446529 -0.0134536 0.00133632 0.0074739 -0.0284289 -0.00561888 -0.0326054 -0.0241109 0.00894228
internal_weight=1521.32 1160.62 823.101 731.896 337.521 360.694 498.007 484.663 220.832 108.795 152.572 233.889 173.029 228.726 147.362 161.918 263.831 184.945 91.2044 208.122 77.7376 90.0577 131.05 68.9713 53.8949 117.198 18.1378 99.0607 165.926 51.5352
internal_count=6687 5003 3472 3063 1531 1684 2113 2058 926 467 696 950 724 1064 602 745 1132 791 409 988 362 404 555 310 236 476 74 402 692 232
is_linear=0
shrinkage=0.03


Tree=13
num_leaves=31
num_cat=0
split_feature=8 25 26 27 27 11 25 25 9 9 26 9 26 8 26 26 24 26 18 7 19 11 7 8 27 6 13 11 10 16
split_gain=199.334 134.396 88.7896 79.7483 36.2305 30.9764 29.7327 29.6454 28.0387 27.1765 23.8321 23.3259 24.12 23.3208 24.2459 20.7077 18.6592 14.2766 13.8768 13.7767 13.3648 13.3023 12.4842 12.1919 11.7602 11.6156 11.3445 11.33 12.5298 11.2409
threshold=0.21357092264000901 0.45695973685656455 1.1054989225178817 0.12735239845062379 -1.2523580733455513 -1.1975564683120068 -0.097148466480974333 1.4125292555598692 -0.33878790376248075 0.050255026562545262 0.46988662018759703 -1.0461386861716189 -0.071794373996047406 -0.56079423244679449 -0.88041255506933414 -0.76053287308813944 -0.31543864841902541 0.036400282083925199 0.12759243263235445 -1.0673331810687887 -1.1575718650092182 -0.73149004673795404 0.21899574976222261 -0.79145619353648067 1.8401337705171663 0.62337631823537398 -0.1808290514408345 0.48028264935458359 0.44766989485191183 -0.62445871315638413
decision_type=2 2 2 2 2 2 2 2 2 2 2 2 2 2 2 2 2 2 2 2 2 2 2 2 2 2 2 2 2 2
left_child=1 2 3 4 -1 -5 10 11 17 13 18 -3 19 22 -15 -10 25 20 -2 -13 -6 -18 -7 27 -16 -17 -22 -4 -29 -21
right_child=6 7 23 5 8 9 -8 -9 15 -11 -12 12 -14 14 24 16 21 -19 -20 29 26 -23 -24 -25 -26 -27 -28 28 -30 -31
leaf_value=0.025549155557874997 0.01224614141465701 0.023471336354415669 0.011842796927211954 0.029455362636452553 0.036367640410070852 -0.017119323247515871 0.026914542947105945 0.027251329688502638 -0.029985297139115661 -0.037230443407042187 0.023741950439042737 0.020733135455348856 0.01394490236387581 -0.04276487668657783 -0.0063736919374674577 -0.0087082210583107264 0.013085968047378913 0.021759142411287308 -0.01137036636854389 -0.028908455961131604 0.013631013517170117 -0.021630506568976259 -0.038711819499476031 0.020051472387074616 -0.047247207354420513 0.013817245892891872 -0.017650766888749562 -0.060632401177792263 0.0027506135233099156 -0.0058495929504127561
leaf_weight=31.200567081570625 41.710482388734818 50.68463808298111 18.583866760134701 9.2525906562805158 6.8034156262874594 36.68384100496769 205.7862051576376 78.034493386745453 54.259742841124535 131.17031519114971 61.948880165815353 11.988819673657416 67.72486886382103 21.415419548749924 127.92405274510384 44.940756142139435 11.20693653821945 32.759897336363792 48.348196268081665 28.68702444434166 14.789717391133307 87.412394374608994 70.246026948094368 75.951034218072891 6.6655222177505484 38.045290216803551 35.426398292183876 5.1730825752019864 6.1370231956243515 56.502586349844933
leaf_count=142 189 232 83 42 31 152 988 369 225 531 292 57 304 88 538 193 49 147 215 123 66 367 284 346 27 163 150 22 27 245
internal_value=-9.32276e-05 -0.00613274 -0.0120794 -0.0156636 -0.00533311 -0.0248029 0.0194819 0.011407 -0.00829199 -0.0260768 0.00941955 0.00567195 0.000201135 -0.0205125 -0.0131156 -0.013723 -0.00886424 0.00597628 -0.000432432 -0.00937707 -0.00309157 -0.0176854 -0.0313042 0.0136637 -0.00839794 0.00161867 -0.00843762 -0.00256543 -0.0262399 -0.0136145
internal_weight=1517.46 1159.67 866.048 760.203 356.845 403.358 357.794 293.622 325.645 394.105 152.008 215.588 164.903 262.935 156.005 235.865 181.605 89.7794 90.0587 97.1784 57.0195 98.6193 106.93 105.845 134.59 82.986 50.2161 29.894 11.3101 85.1896
internal_count=6687 5003 3673 3195 1533 1662 1684 1330 1391 1620 696 961 729 1089 653 997 772 394 404 425 247 416 436 478 565 356 216 132 49 368
is_linear=0
shrinkage=0.03


Tree=14
num_leaves=31
num_cat=0
split_feature=8 25 26 27 27 11 25 25 9 9 26 26 9 26 8 26 12 9 8 27 19 26 6 19 4 10 18 14 12 8
split_gain=188.745 126.573 83.4956 74.7854 34.2511 29.1217 28.6275 28.3825 26.3078 25.5287 22.7109 22.6007 22.2014 22.6537 19.9201 19.5428 14.6355 23.4197 14.0096 13.8334 13.7239 13.5397 13.0132 12.69 12.6569 12.3732 11.7678 12.754 11.6247 11.5875
threshold=0.21357092264000901 0.45695973685656455 1.1054989225178817 0.12735239845062379 -1.2523580733455513 -1.1975564683120068 -0.097148466480974333 1.4125292555598692 -0.33878790376248075 0.050255026562545262 0.46988662018759703 -0.3981689036606077 -0.42720675156362298 -0.071794373996047406 -0.56079423244679449 -0.59163048813534658 -0.23023315653434451 0.15635764392391602 -0.56079423244679449 1.8401337705171663 -1.3014976051097131 0.036400282083925199 -0.64638057812421301 -1.1575718650092182 -0.49520979175720187 -1.1031540210737532 -0.14650329538329651 -1.0142949220017883 0.39022670977719975 -0.79145619353648067
decision_type=2 2 2 2 2 2 2 2 2 2 2 2 2 2 2 2 2 2 2 2 2 2 2 2 2 2 2 2 2 2
left_child=1 2 3 4 -1 -5 10 12 21 11 20 -7 28 18 -13 -10 -8 -18 -14 -16 -2 23 -17 -6 -20 -15 -22 -28 -3 -4
right_child=6 7 29 5 8 9 16 -9 15 -11 -12 14 13 25 19 22 17 -19 24 -21 26 -23 -24 -25 -26 -27 27 -29 -30 -31
leaf_value=0.024993565320095081 0.030475489506020897 0.027867807315376251 -0.0024868612027321921 0.028854495322640963 0.035723413527772523 -0.031525832675290133 0.032634188996714913 0.02672128545372679 -0.026021760333757828 -0.036044307480749861 0.023244387657696916 -0.025675186406963053 -0.028191012435370803 -0.032921889661711584 -0.0018481238742542197 -0.023201002780836602 0.023897446217047522 -0.019003359839586099 -0.029963448664701173 -0.049080000486292567 0.014655195909328914 0.021258371779702603 -0.0028569366814891702 -0.0081714393379770829 0.0043418617629094282 0.017198237802399347 -0.060878789192679403 -0.0077357895338041778 -0.00029385243014233429 0.019586426059274437
leaf_weight=30.941270485520363 11.314877212047575 47.477804780006409 29.884062811732292 9.1632701605558378 6.7195964455604544 95.328468039631844 127.14455604553223 77.207527980208397 74.288414791226387 131.41815900802612 61.385302692651749 68.623189553618431 27.816766083240509 4.8144899606704703 93.572793066501617 36.528026819229126 62.37885707616806 14.027651622891424 12.083405509591101 5.9348159134387961 20.553622499108315 32.529183551669121 125.58968272805214 50.290290340781212 48.650510460138321 55.949250146746635 4.3966213315725318 53.788906559348106 18.267762809991837 75.429712265729904
leaf_count=142 53 220 132 42 31 390 626 369 307 531 292 280 118 21 395 154 301 61 53 24 93 147 536 216 215 252 19 239 82 346
internal_value=-8.86803e-05 -0.00595313 -0.011713 -0.015178 -0.00517097 -0.0240172 0.0190499 0.0111184 -0.00803443 -0.0252441 0.00917296 -0.0198567 0.00551684 -0.000879239 -0.0132405 -0.0132797 0.0263982 0.0160212 -0.010559 -0.00466512 -0.000418825 0.00581445 -0.00744082 -0.00299768 -0.0024834 0.0132271 -0.00485836 -0.0117514 0.0200429 0.0133229
internal_weight=1513.5 1158.51 866.241 760.927 356.886 404.041 354.99 292.268 325.945 394.877 151.439 263.459 215.06 149.314 168.131 236.406 203.551 76.4065 88.5507 99.5076 90.054 89.5391 162.118 57.0099 60.7339 60.7637 78.7392 58.1855 65.7456 105.314
internal_count=6687 5003 3673 3195 1533 1662 1684 1330 1391 1620 696 1089 961 659 699 997 988 362 386 419 404 394 690 247 268 273 351 258 302 478
is_linear=0
shrinkage=0.03


Tree=15
num_leaves=31
num_cat=0
split_feature=7 27 26 9 8 26 8 25 9 15 9 27 27 10 26 26 2 8 12 8 21 9 17 27 9 27 26 25 19 15
split_gain=185.463 102.327 64.5789 56.7004 42.5094 36.1387 29.6019 28.4876 24.4551 22.9351 22.8069 21.2957 20.9628 17.9323 17.5623 15.8686 15.5661 14.9309 14.4766 14.4067 14.2511 14.1722 16.8437 13.8384 15.2385 13.6297 13.551 14.7641 13.1691 12.8758
threshold=-0.3550112462537664 0.53313903768218485 0.18699666417551011 1.0000000180025095e-35 -0.72555277608228463 0.81844133100955452 -0.62669764990099053 0.34705397751688755 0.22709272216482984 -1.0353852666773955 1.0000000180025095e-35 0.65977548278352094 1.399034568378682 -1.2139271579255866 1.1720605270631417 -1.7056448257211312 0.3930275293585565 -0.9067871740813237 1.0923260321823685 -0.79145619353648067 -1.7082289257640644 0.050255026562545262 0.51026010038419878 -0.69961606223186068 -0.42720675156362298 1.1597633931404643 -0.86211290692376708 0.4928317555299313 0.66548750959705394 -0.32184514974854611
decision_type=2 2 2 2 2 2 2 2 2 2 2 2 2 2 2 2 2 2 2 2 2 2 2 2 2 2 2 2 2 2
left_child=3 2 4 6 -2 12 23 10 13 -5 15 -8 17 -4 29 -6 -10 -3 -9 -7 -17 22 -19 -1 -25 28 -26 -28 -11 -15
right_child=1 5 8 9 7 19 11 18 16 25 -12 -13 -14 14 -16 20 -18 21 -20 -21 -22 -23 -24 24 26 -27 27 -29 -30 -31
leaf_value=0.033646831967558487 -0.024180188293991895 -0.035383386349940094 -0.038146052022547644 0.027587803785432255 -0.047379967647690258 -0.026117189609946998 0.028404699325795455 0.013035895646549538 0.0023015275531285254 -0.010929576577849202 -0.024018396229083555 0.0065898899599639814 -0.042278460532703378 0.029654423305650681 0.029595010153988452 0.045854577344003486 -0.034047900323985442 -0.017467421872717236 -0.032566393662483116 0.0064903193553887172 -0.0028439748675648411 -0.031687624861677463 0.013486761288523491 0.013183417970529392 -0.06556061254816177 -0.036060310456014585 -0.029914459087421699 0.021990267012960106 0.010971312338695036 0.0061027092354452315
leaf_weight=9.7886783331632596 118.15614069998264 55.558004692196846 5.6421838551759711 20.626556053757668 6.9635086804628363 16.626346305012703 241.8516728579998 94.735372707247734 34.986061871051788 69.918155685067177 65.60354271531105 48.321287974715233 65.672938212752342 25.44037002325058 60.63540917634964 5.6099902391433707 15.213665366172789 63.830982968211174 6.7088984847068778 45.751743048429489 150.42211322486401 38.770290225744247 21.035051360726357 21.46047222614288 4.9630437344312659 12.68464022874832 13.154202014207849 7.890739530324935 38.21654948592186 116.84067909419537
leaf_count=47 487 223 25 95 29 70 1199 424 150 302 272 229 265 116 289 25 65 267 29 202 645 157 88 97 21 52 57 36 167 525
internal_value=-0.00081508 -0.00813145 -0.00184943 0.0143632 -0.00873883 -0.0225861 0.0208821 -0.00321079 0.0100838 -0.00164912 -0.00908217 0.024772 -0.0277791 0.0146086 0.0160754 -0.00307054 -0.00871463 -0.0224652 0.01002 -0.00220093 -0.00109306 -0.0166602 -0.00979506 0.00116874 -0.00552871 -0.00664051 -0.020969 -0.0104529 -0.00318945 0.0103138
internal_weight=1503.08 1014.2 706.958 488.876 448.2 307.245 347.43 330.043 258.758 141.446 228.599 290.173 244.867 208.559 202.916 162.996 50.1997 179.194 101.444 62.3781 156.032 123.636 84.866 57.2571 47.4685 120.819 26.008 21.0449 108.135 142.281
internal_count=6655 4353 3081 2302 1911 1272 1686 1424 1170 616 971 1428 1000 955 930 699 215 735 453 272 670 512 355 258 211 521 114 93 469 641
is_linear=0
shrinkage=0.03


Tree=16
num_leaves=31
num_cat=0
split_feature=7 27 26 9 8 26 6 8 21 15 27 25 12 27 9 8 11 9 8 9 17 27 9 25 6 7 26 25 27 14
split_gain=175.294 96.1795 60.918 54.1325 34.7577 33.9575 32.5459 28.387 22.178 21.7523 20.5907 20.179 20.0851 19.7509 16.0628 14.1003 13.8205 13.6756 13.504 13.3395 15.8133 13.1832 14.3018 13.0903 12.6445 12.6232 12.4913 13.8319 12.3499 11.8695
threshold=-0.3550112462537664 0.53313903768218485 -0.34880096981305325 1.0000000180025095e-35 1.0000000180025095e-35 0.81844133100955452 0.26601958692459188 -0.62669764990099053 -0.70723187178570501 -0.9461927520612895 0.65977548278352094 1.5163291393806753 0.50452194830827379 1.399034568378682 0.65150319161031278 -0.9067871740813237 -0.35863690947871169 0.52771680468871363 -0.79145619353648067 0.050255026562545262 0.51026010038419878 -0.69961606223186068 -0.42720675156362298 1.3499440314914419 -1.1710106730272758 -0.68696709937144684 -0.86211290692376708 0.4928317555299313 -0.39056566311691238 0.36209624524782663
decision_type=2 2 2 2 2 2 2 2 2 2 2 2 2 2 2 2 2 2 2 2 2 2 2 2 2 2 2 2 2 2
left_child=3 2 8 7 6 13 12 21 -2 -5 -9 14 28 15 16 -3 -10 -8 -7 20 -17 -1 -23 24 -11 -12 -24 -28 -4 -6
right_child=1 5 4 9 29 18 17 10 11 23 25 -13 -14 -15 -16 19 -18 -19 -20 -21 -22 22 26 -25 -26 -27 27 -29 -30 -31
leaf_value=0.03309714742974109 0.0092232296330822649 -0.034332547332441565 0.0092655841051023299 0.024799420520405048 0.011288156364120588 -0.025217449202786766 0.013950898374753631 0.027903687046777065 0.0025667426257644744 -0.039432574667029929 0.016286149324855632 0.029628610765899524 -0.032864491677058599 -0.041002506475101889 -0.033837237817120988 -0.016895317415754559 -0.01787651999885501 -0.015117593838194018 0.0063073992806310869 -0.030715410713357077 0.013112492948642402 0.012844634768983008 -0.062727250898926362 0.018655539153966637 -0.0068802935455991015 -0.017452901982629842 -0.028791013346831752 0.02149643650726581 -0.010787044349848509 0.029873143735375925
leaf_weight=9.6547487527132017 35.935728639364243 55.540925145149231 39.44995054602623 23.434203535318375 87.270865231752396 16.701790824532509 117.96405257284641 238.85398359596729 37.080673545598984 12.194121003150938 34.089350715279579 8.4041157662868482 27.753942921757698 65.684780776500702 44.774534448981285 64.009841129183769 150.80014304816723 16.618170529603958 45.667524367570877 38.797073751688004 20.98712395131588 21.367140382528302 5.0305235981941214 15.703504905104635 90.022535994648933 14.111888483166693 13.255866959691057 7.8307674825191489 92.345623925328255 47.904995441436768
leaf_count=47 156 223 172 108 408 70 522 1199 158 51 166 39 117 265 184 267 635 70 202 157 88 97 21 74 383 63 57 36 391 229
internal_value=-0.000790814 -0.0078904 -0.00179421 0.0140312 0.00528281 -0.0218979 -0.000504029 0.0204505 -0.0127627 -0.00159963 0.0242943 -0.0160402 -0.00966928 -0.0269286 -0.0176899 -0.0217738 -0.0138418 0.0103615 -0.0021346 -0.0161392 -0.0094859 0.00113986 -0.00535786 -0.0068459 -0.0107637 0.00640836 -0.0202498 -0.0101162 -0.00478475 0.0178745
internal_weight=1499.24 1013.69 706.303 485.549 429.308 307.389 294.132 344.194 276.995 141.354 287.055 241.059 159.55 245.02 232.655 179.335 187.881 134.582 62.3693 123.794 84.997 57.139 47.4843 117.92 102.217 48.2012 26.1172 21.0866 131.796 135.176
internal_count=6655 4353 3081 2302 1909 1272 1272 1686 1172 616 1428 1016 680 1000 977 735 793 592 272 512 355 258 211 508 434 229 114 93 563 637
is_linear=0
shrinkage=0.03


Tree=17
num_leaves=31
num_cat=0
split_feature=7 27 26 9 8 26 8 25 6 15 9 27 27 8 9 26 12 12 21 27 27 9 22 19 8 16 12 7 15 12
split_gain=165.712 90.4587 58.5557 51.6947 38.945 31.9654 27.2242 26.4007 23.1293 20.6897 20.6678 19.8883 19.1476 15.4329 20.8244 14.7308 14.4545 13.4478 13.4384 12.7585 12.5627 13.4313 13.6651 12.3382 12.1722 11.9509 14.1515 11.9112 11.8215 12.0662
threshold=-0.3550112462537664 0.53313903768218485 0.18699666417551011 1.0000000180025095e-35 -0.72555277608228463 1.2254026202430195 -0.62669764990099053 0.34705397751688755 -0.28902384681343118 -1.0353852666773955 1.0000000180025095e-35 0.65977548278352094 1.2526162176306099 -0.49489081499259852 0.050255026562545262 -1.7056448257211312 -0.23023315653434451 1.0923260321823685 -1.7082289257640644 1.1597633931404643 -0.69961606223186068 -0.42720675156362298 -0.50533446775267732 0.66548750959705394 0.21357092264000901 0.16916987813519715 1.83932705543903 -0.68696709937144684 -0.41103766436465233 0.022849157355890656
decision_type=2 2 2 2 2 2 2 2 2 2 2 2 2 2 2 2 2 2 2 2 2 2 2 2 2 2 2 2 2 2
left_child=3 2 4 6 25 12 20 10 16 -5 15 -8 13 -3 -15 -6 -4 -9 -17 23 -1 -22 -23 -11 28 26 -2 -13 -10 -30
right_child=1 5 8 9 7 -7 11 17 24 19 -12 27 -14 14 -16 18 -18 -19 -20 -21 21 22 -24 -25 -26 -27 -28 -29 29 -31
leaf_value=0.032563950058198399 -0.014174229045151483 -0.030419934301992892 0.0046000571153628003 0.026515006258599146 -0.045408973302092079 0.0040021358821879585 0.027414060682630293 0.012722653717575347 0.030089976431541116 -0.010376097561579894 -0.022795877669529525 0.015906027415985579 -0.035981263737284948 -0.0034862152657770817 -0.032180187227806065 0.045032240064284849 -0.023651091948214052 -0.031043401368341914 -0.0026607237908728406 -0.034673850745726945 0.012514061894708373 -0.049994062440966783 -0.0041453095540919943 0.010825251858654355 0.029860097441177 -0.040297301678911539 -0.05664390421777242 -0.016839957525278622 0.018035812230948221 -0.0014869228731267338
leaf_weight=9.5204900205135328 83.305484667420387 67.143865704536438 52.166438519954681 20.24960370361805 7.017210289835929 39.36995105445385 235.87185299396515 94.295607641339302 24.776529580354691 70.152387142181396 65.904907763004303 33.86040860414505 92.627840846776962 75.716619610786438 32.548447474837303 5.5118633657693854 23.706696569919586 6.7723752260208121 150.53015147149563 12.717558622360228 21.275045290589329 8.8171082288026792 17.389396116137512 38.132173761725426 41.091422274708748 27.64109393954277 7.7153176069259635 14.185619622468947 51.565492779016495 63.678269028663635
leaf_count=47 342 270 234 95 29 176 1199 424 114 302 272 166 375 319 132 25 103 29 645 52 97 38 76 167 201 113 32 63 234 284
internal_value=-0.000767413 -0.00765739 -0.00174073 0.013709 -0.00828078 -0.0212396 0.0200319 -0.0029811 0.00967816 -0.0015516 -0.00861843 0.0238305 -0.0249472 -0.0191204 -0.0121127 -0.00288823 -0.00422706 0.00978997 -0.000976068 -0.00624852 0.00111179 -0.00519465 -0.019571 -0.00291009 0.0155035 -0.0230207 -0.0177741 0.00623776 0.0112903 0.00724847
internal_weight=1495.26 1013.09 705.679 482.172 448.694 307.407 340.92 330.032 256.985 141.252 228.964 283.918 268.037 175.409 108.265 163.059 75.8731 101.068 156.042 121.002 57.002 47.4815 26.2065 108.285 181.112 118.662 91.0208 48.046 140.02 115.244
internal_count=6655 4353 3081 2302 1911 1272 1686 1424 1170 616 971 1428 1096 721 451 699 337 453 670 521 258 211 114 469 833 487 374 229 632 518
is_linear=0
shrinkage=0.03


Tree=18
num_leaves=31
num_cat=0
split_feature=7 27 26 17 25 8 26 9 25 9 20 9 26 8 27 15 10 26 13 13 2 27 8 12 2 8 8 20 27 11
split_gain=156.663 85.1147 55.1788 50.3472 41.8752 36.4748 30.47 26.3693 24.8539 22.4866 22.2343 20.6686 20.2646 19.0126 17.8457 16.3095 15.5467 15.7807 14.9861 14.5958 14.4007 13.1293 12.7661 12.6335 12.5795 13.9931 12.4721 12.4404 13.7276 12.2834
threshold=-0.3550112462537664 0.53313903768218485 0.18699666417551011 -0.98244667130836782 0.45695973685656455 -0.72555277608228463 0.81844133100955452 -0.69246329496704973 0.34705397751688755 0.22709272216482984 -1.8609965195226061 1.0000000180025095e-35 -0.59163048813534658 -1.0221181546261668 1.399034568378682 -0.32184514974854611 -1.2139271579255866 1.1720605270631417 0.10487434682248366 -1.0107293987771397 0.3930275293585565 -0.89014378777366276 -0.9067871740813237 1.0923260321823685 1.0000000180025095e-35 -0.56079423244679449 -0.79145619353648067 0.33643329248882931 -0.063701292672688023 1.2259889238730686
decision_type=2 2 2 2 2 2 2 2 2 2 2 2 2 2 2 2 2 2 2 2 2 2 2 2 2 2 2 2 2 2
left_child=3 2 5 -1 7 -2 14 19 10 15 -7 21 -9 -14 22 -4 -17 27 -15 -5 -11 -12 -3 -10 -6 -26 -8 -18 -29 -23
right_child=1 6 9 4 24 8 26 12 23 20 11 -13 13 18 -16 16 17 -19 -20 -21 -22 29 -24 -25 25 -27 -28 28 -30 -31
leaf_value=0.033982224110322562 -0.022265679776619082 -0.03244911306300783 0.031558723675182976 -0.030628655489860032 0.026682366850912444 -0.068860105832101379 -0.024009076540001409 -0.026083495436252369 0.012390879594435961 0.0020707559580245426 0.0205704472616598 -0.021177430724584178 -0.027753437357793041 -0.0016177004751425136 -0.038768562061494892 -0.039951423038556665 0.015377201488386153 0.026268166963238214 0.027278587214979281 0.023426940048561072 -0.032825874693179768 -0.0067767607518191882 -0.015129002420179685 -0.029893142085085377 -0.0094956777162929114 0.017411317278248472 0.0062515117332092142 0.0092149861733619963 -0.020086924352015451 0.031122056890857081
leaf_weight=87.388982266187668 118.99776540696621 55.418523564934731 38.02078153192997 4.9962314516305915 93.157423168420792 5.3380044400691977 16.766315713524818 38.053970977663994 93.921570241451263 34.883000090718269 21.750754073262215 64.876631960272789 19.311292797327042 70.452812299132347 65.559537529945374 5.4691848009824744 58.02035129070282 46.355431020259857 20.957832112908363 44.868215188384056 15.315785706043242 129.06054364144802 123.99199475347996 6.8212128430604926 22.45530854165554 77.191115319728851 45.589939996600151 31.251625686883926 26.668979704380035 8.1849187314510328
leaf_count=454 487 223 181 22 461 22 70 165 424 150 96 267 81 320 265 24 264 225 98 218 65 551 512 29 100 383 202 144 117 35
internal_value=-0.000744817 -0.00743284 -0.00168901 0.0133938 0.00879748 -0.00802683 -0.0206079 -0.000869459 -0.00289159 0.00942638 -0.00835019 -0.0069074 -0.00719745 -0.000706511 -0.0253737 0.0138179 0.00979728 0.0114738 0.00500739 0.0180108 -0.0085763 -0.00108467 -0.0204791 0.00952786 0.018757 0.0113478 -0.00188494 0.00555866 -0.00427679 -0.00451659
internal_weight=1491.1 1012.26 704.937 478.833 391.444 448.951 307.326 198.64 329.954 255.985 229.211 223.873 148.776 110.722 244.97 205.786 167.766 162.296 91.4106 49.8644 50.1988 158.996 179.411 100.743 192.804 99.6464 62.3563 115.941 57.9206 137.245
internal_count=6655 4353 3081 2302 1848 1911 1272 904 1424 1170 971 949 664 499 1000 955 774 750 418 240 215 682 735 453 944 483 272 525 261 586
is_linear=0
shrinkage=0.03


Tree=19
num_leaves=31
num_cat=0
split_feature=7 27 8 17 25 9 20 9 8 6 25 10 9 9 8 12 18 12 13 12 27 9 25 15 14 7 27 24 27 17
split_gain=148.108 80.0811 49.0357 48.6613 39.8365 31.0894 25.0267 24.9411 24.144 20.5313 22.1533 19.6364 19.623 18.4303 17.6429 17.2989 14.4778 14.4112 13.8093 13.3488 12.8272 12.203 11.7063 11.5534 11.528 11.2377 15.2268 10.535 17.6315 10.4323
threshold=-0.3550112462537664 0.53313903768218485 0.21357092264000901 -0.98244667130836782 0.45695973685656455 0.65150319161031278 -1.8110549328859828 -0.69246329496704973 -0.9067871740813237 0.26601958692459188 -0.50013625072645718 -1.2139271579255866 0.36856287864665754 0.33319533952620056 1.0000000180025095e-35 -0.042462407519008795 1.60770936391687 -0.38534812311223049 -1.0107293987771397 0.15347228710568941 1.3293875596238955 1.0000000180025095e-35 1.119447230654063 -0.76780772282907706 -0.37903746019427381 0.04610207626343072 -0.54168110426636795 -1.0251532325553991 0.11411301327340945 -0.47445745581089749
decision_type=2 2 2 2 2 2 2 2 2 2 2 2 2 2 2 2 2 2 2 2 2 2 2 2 2 2 2 2 2 2
left_child=3 2 5 -1 7 6 -2 18 -3 10 -8 -9 17 -4 -13 -12 -16 -10 -5 -11 -19 -6 24 -23 -7 -17 -27 28 -21 -14
right_child=1 8 13 4 21 22 9 11 12 19 15 14 29 -15 16 25 -18 20 -20 27 -22 23 -24 -25 -26 26 -28 -29 -30 -31
leaf_value=0.033511425482249398 -0.046898637794889432 -0.032678764201858987 0.019409638095542157 -0.029464009634808368 0.023476837154310488 -0.040526987412831741 -0.022788223998931864 -0.04963288352480015 0.0065852503554701463 0.01728817880209978 0.0051722981626228801 -0.01203166853289828 -0.0019959659165827274 -0.0078896447945383304 0.015237768953042897 0.0033006392135378052 -0.043447032862014942 -0.0074639089262751859 0.02294757717618507 0.030923305017142116 -0.028966976916107667 0.03844697577537725 0.020069955968468372 0.0016251709966112985 -0.016937612825469923 0.0053597355261935237 -0.031290177789834603 -0.0040438185702722966 -0.015995078744387405 -0.035296977960220334
leaf_weight=85.97959890961647 11.114366009831427 93.825061678886414 114.50408978760242 5.0372648984193793 131.13183963298798 26.370788991451263 60.772161945700645 9.1170065551996213 40.224231660366058 62.999880224466324 117.83603033423424 90.706720396876335 10.305687069892882 27.62746325135231 44.945533782243729 25.046701297163963 4.1312555074691764 78.922599792480469 44.43789891898632 21.901010408997536 36.52102118730545 9.0237153768539411 5.8150680959224692 51.084828943014145 63.641593933105469 14.067156299948691 37.136416971683502 104.45892952382565 10.745223030447958 47.444582968950272
leaf_count=454 46 381 553 22 670 108 256 40 174 282 511 389 42 120 215 108 20 332 218 99 149 45 26 229 262 61 155 447 47 194
internal_value=-0.000722758 -0.00721592 -0.001639 0.0130839 0.00857604 -0.00562093 -0.00242121 -0.000842611 -0.0199952 -0.00133467 -0.0069817 -0.00697431 -0.0144192 0.0141032 -0.00419201 -0.00203237 0.0102977 -0.00887844 0.0176113 0.00585753 -0.0142665 0.0183461 -0.0211835 0.007153 -0.0238486 -0.0131664 -0.0212213 0.000605141 0.0154805 -0.0293543
internal_weight=1486.88 1011.28 704.037 475.596 389.616 561.905 466.078 198.376 307.243 454.964 254.858 148.901 213.418 142.132 139.784 194.086 49.0768 155.668 49.4752 200.105 115.444 191.24 95.8275 60.1085 90.0124 76.2503 51.2036 137.105 32.6462 57.7503
internal_count=6655 4353 3081 2302 1848 2408 2012 904 1272 1966 1091 664 891 673 624 835 235 655 240 875 481 944 396 274 370 324 216 593 146 236
is_linear=0
shrinkage=0.03


Tree=20
num_leaves=31
num_cat=0
split_feature=7 27 8 9 26 9 26 9 8 19 8 22 27 25 26 25 13 27 25 9 10 21 15 7 26 18 20 21 26 11
split_gain=143.542 97.1687 53.4805 44.3357 36.4476 34.7 33.1824 25.3356 22.4887 17.7209 17.5502 17.5139 16.1972 16.0862 15.9519 15.8583 15.6772 15.3893 15.1146 13.2726 13.0536 12.4228 11.1563 14.0927 11.7262 11.024 13.3988 12.7062 10.9724 10.6838
threshold=-0.73537732795110855 0.52686228844886596 0.21357092264000901 1.0000000180025095e-35 -0.3981689036606077 0.050255026562545262 0.062826909258633129 0.050255026562545262 -1.0880215720803628 0.52156176949655875 -0.79145619353648067 -0.78034619859159393 -0.51505263800139034 0.67829772441563707 0.19931718630425904 1.3499440314914419 -0.28966844125543195 -0.81648526105095887 0.79430935927418489 -0.72783083408750671 0.44766989485191183 -0.23868005928519639 -0.41103766436465233 0.059933570143334086 1.5372179078987911 0.73060303426678674 0.98567391876493538 -0.19608443996696831 -1.0194850447626769 1.0000000180025095e-35
decision_type=2 2 2 2 2 2 2 2 2 2 2 2 2 2 2 2 2 2 2 2 2 2 2 2 2 2 2 2 2 2
left_child=3 2 5 -1 -3 6 8 10 12 29 -6 -12 -2 -11 18 16 17 -5 19 -4 -9 -14 -8 -24 -25 26 28 -28 -10 -7
right_child=1 4 14 15 7 9 22 20 25 13 11 -13 21 -15 -16 -17 -18 -19 -20 -21 -22 -23 23 24 -26 -27 27 -29 -30 -31
leaf_value=0.026255080606234486 0.00210679882290902 -0.032981786543322629 0.023724873093185453 0.043217012725260379 -0.020366400519089771 -0.010274963465566809 0.026019241146185101 -0.03563059245045961 -0.010037231619717703 -0.009960920286728488 -0.021003922058272628 0.0066771838324028929 0.01173930506370216 0.02583538074121219 0.025657801267517176 0.030606643070919672 0.019166052027751356 -0.016742491862363547 0.031134562428490321 -0.0040435295392812843 -0.0088032480540003195 -0.034088751895823895 0.018172513071682585 -0.0042978444025139444 0.021890381017298826 -0.017728029917617804 0.020834684717121275 -0.030431887107236415 0.0095490531749884214 -0.02870159369513494
leaf_weight=206.59596845507622 21.417053312063217 103.50406119227409 20.090392217040062 4.1578962951898566 50.285218954086304 47.395849466323853 33.596521869301796 48.284221693873405 32.621673360466957 48.170450314879417 26.229772508144379 95.354471251368523 6.011232152581214 14.760558411478995 75.651651576161385 13.741687998175619 18.981493890285492 52.455144822597504 20.131778851151466 67.677327275276184 24.660732835531235 46.534101665019989 64.252472966909409 86.730746209621429 18.707378193736076 29.169217854738235 5.6693695634603527 18.710692867636681 122.05934710800648 70.356782734394073
leaf_count=1076 91 424 96 20 205 196 158 197 140 199 111 414 25 66 382 69 84 224 101 309 102 191 300 382 90 126 25 80 532 290
internal_value=-9.09468e-05 -0.00471265 0.000757527 0.0186193 -0.018057 -0.00319314 0.000983905 -0.0117471 -0.00567299 -0.0144165 -0.00545971 0.000705447 -0.0198831 -0.00156485 0.0150957 0.000960968 -0.00442807 -0.0123388 0.00769031 0.00231277 -0.026561 -0.028846 0.0102247 0.00709754 0.000348606 -0.00062563 0.00216037 -0.0185103 0.00541838 -0.0212848
internal_weight=1493.97 1198.03 849.715 295.932 348.318 666.163 485.48 244.814 282.193 180.684 171.869 121.584 73.9624 62.931 183.551 89.3362 75.5945 56.613 107.899 87.7677 72.945 52.5453 203.287 169.691 105.438 208.23 179.061 24.3801 154.681 117.753
internal_count=6705 5232 3779 1473 1453 2891 2140 1029 1210 751 730 525 307 265 888 397 328 244 506 405 299 216 930 772 472 903 777 105 672 486
is_linear=0
shrinkage=0.03


Tree=21
num_leaves=31
num_cat=0
split_feature=7 27 8 9 9 8 9 8 19 12 27 6 12 19 25 27 13 27 25 9 6 25 25 10 15 25 22 14 19 27
split_gain=136.138 91.6868 48.0346 42.5815 27.8657 27.5476 32.3282 21.2708 18.0529 17.0884 15.723 15.6637 16.7865 15.2115 15.1129 14.7907 14.7737 14.5934 14.1688 13.2506 13.2278 12.9294 12.7936 12.3859 11.137 10.6222 10.5595 10.429 10.227 12.552
threshold=-0.73537732795110855 0.37025411481712173 0.21357092264000901 1.0000000180025095e-35 0.050255026562545262 -0.9067871740813237 1.0000000180025095e-35 -0.72555277608228463 1.1932152232988698 0.19429201515250155 1.1353598250005776 -0.19778383030855065 1.83932705543903 0.52156176949655875 1.3499440314914419 -0.51505263800139034 -0.28966844125543195 -0.81648526105095887 0.79430935927418489 0.19172518304437294 0.65378965707033421 0.67829772441563707 0.55160080739906447 0.66921616855557831 -0.58942269359686461 -0.12233520299631688 -0.23032273691376096 1.2091061943245129 1.1452399765987045 0.19771947050475927
decision_type=2 2 2 2 2 2 2 2 2 2 2 2 2 2 2 2 2 2 2 2 2 2 2 2 2 2 2 2 2 2
left_child=3 2 4 25 7 -3 9 11 24 27 20 15 -13 -6 16 -2 17 -5 19 -4 -11 -15 23 -9 -8 -1 -18 -7 29 -19
right_child=1 5 18 14 13 6 8 22 -10 10 -12 12 -14 21 -16 -17 26 28 -20 -21 -22 -23 -24 -25 -26 -27 -28 -29 -30 -31
leaf_value=0.013352859771324166 0.0035086779843136648 -0.02839077558958053 0.016222439096385322 0.042668956229398758 -0.019795692476326527 0.0057917271303596076 -0.00043555942485858947 -0.0012987764525184385 0.0043186011848075452 -0.018990585356750765 -0.030496553792083842 0.0037203394690983639 -0.045823304007088818 -0.0086887930251297995 0.03010895723188679 -0.031673932149359804 -0.0095860847328127618 -0.0073925718831729563 0.034692807915112631 -0.0067598382585410625 0.0079173807799915123 0.024436408474782914 0.016475040623636677 0.015424519957615132 -0.036243844297478026 0.029557096048530289 0.036492201183326529 -0.031151561189392194 0.014991383969477114 -0.039380597057699557
leaf_weight=47.435705825686455 15.174050897359846 115.54726377129555 113.59702017903328 4.0860496014356604 105.82971167564392 103.99979701638222 8.8511125892400724 185.53161913156509 14.651083558797835 32.198313355445862 33.504486963152885 74.72066156566143 6.707487240433692 43.680275827646255 13.552642703056334 36.919783696532249 7.2935743182897594 24.519187837839127 28.927855879068375 28.179140672087669 33.601863622665405 14.005071699619291 75.565581530332565 50.765022292733192 66.910018935799599 156.61440001428127 11.586914911866186 7.3641801327466956 8.0250925868749601 20.083159431815147
leaf_count=237 65 472 562 20 436 456 37 809 61 136 138 325 28 180 69 153 32 106 149 122 145 63 356 233 274 839 52 32 35 83
internal_value=-8.68224e-05 -0.00457709 0.00149452 0.0182333 -0.00244833 -0.0159384 -0.0111595 0.00144029 -0.0261653 -0.00471957 -0.0137677 -0.00857931 -0.000360723 -0.0130402 0.000936426 -0.0214258 -0.00429369 -0.0119459 0.0155586 0.0116545 -0.00524962 -0.000646529 0.00573012 0.00229399 -0.0320604 0.0257901 0.0186921 0.00334877 -0.0161862 -0.0217959
internal_weight=1489.43 1196.23 779.603 293.197 608.899 416.628 301.081 445.384 90.4122 210.669 99.3047 133.522 81.4281 163.515 89.1466 52.0938 75.594 56.7135 170.704 141.776 65.8002 57.6853 311.862 236.297 75.7611 204.05 18.8805 111.364 52.6274 44.6023
internal_count=6705 5232 3481 1473 2648 1751 1279 1969 372 907 419 571 353 679 397 218 328 244 833 684 281 243 1398 1042 311 1076 84 488 224 189
is_linear=0
shrinkage=0.03


Tree=22
num_leaves=31
num_cat=0
split_feature=7 27 26 9 26 25 9 20 27 9 8 9 18 8 22 25 13 27 19 8 13 15 25 6 17 26 20 26 11 27
split_gain=129.17 86.382 48.8655 40.8812 34.155 32.6157 25.9282 23.3074 25.0277 23.077 20.2784 18.5518 16.9657 15.0183 18.1772 14.4054 13.9374 13.8542 13.4443 13.0846 13.3861 12.0791 13.2621 13.0039 11.3801 11.3214 11.1357 11.6446 12.3011 10.5963
threshold=-0.73537732795110855 0.52686228844886596 0.18699666417551011 1.0000000180025095e-35 -0.3981689036606077 0.8126269858307974 0.050255026562545262 -1.8609965195226061 -0.90692726941927615 0.22709272216482984 -1.0550698633532647 1.0000000180025095e-35 0.73060303426678674 -0.79145619353648067 -0.78034619859159393 1.3499440314914419 -0.28966844125543195 -0.81648526105095887 1.2411904699990346 -0.72555277608228463 -0.55496445392851312 -0.32184514974854611 1.0919707908191438 -1.5131607349205776 -0.060250864712960206 1.1720605270631417 1.135498678674806 -0.60863617658400637 0.85313578661382605 0.15978757242657821
decision_type=2 2 2 2 2 2 2 2 2 2 2 2 2 2 2 2 2 2 2 2 2 2 2 2 2 2 2 2 2 2
left_child=3 2 5 29 -3 7 21 -2 -9 13 -10 12 26 -6 -15 16 17 -5 -11 20 -7 -4 23 -23 -8 -25 27 28 -12 -1
right_child=1 4 6 15 9 19 24 8 10 18 11 -13 -14 14 -16 -17 -18 -19 -20 -21 -22 22 -24 25 -26 -27 -28 -29 -30 -31
leaf_value=0.030864610522125704 -0.048553906349450671 -0.031488448523638787 0.028228813056926788 0.042150013226594285 -0.018846224130286443 -0.053563206594703587 0.0087223524098097062 0.012391289278956767 -0.022253510444954508 -0.032743290032776096 -0.010251815510368212 -0.017607284466971098 -0.020844002099082784 -0.021178515329091863 0.0062730378181914638 0.029623358393191048 0.018240378906515021 -0.015671285123693982 0.0018342742256731914 0.018487975144701171 0.0043662372101426336 -0.042268965419531901 0.035188248094881504 0.0051112148678685489 -0.016651147943450982 0.022142149457385716 -0.02533081453722397 0.010659428535153522 0.030155090265044093 0.016772836600429726
leaf_weight=122.4920788705349 12.362415477633474 103.34396129846573 48.667419224977493 4.013365074992179 52.441700264811516 4.6771367639303234 26.778107091784477 53.76790177822113 86.483954980969429 53.05640321969986 57.459926262497902 85.340969696640968 33.084639996290207 27.817874416708946 98.850339442491531 13.364423513412474 18.771515920758247 52.722086191177368 12.505679756402968 66.991002336144447 15.445576801896093 4.3637399524450293 19.129401952028275 117.8562878370285 39.191194608807564 50.04614669084549 12.076048731803892 105.08900544047356 7.6879397183656684 78.996406331658363
leaf_count=673 51 424 240 20 214 20 116 235 353 217 249 350 146 117 429 69 84 224 52 323 66 20 97 545 167 249 52 467 33 403
internal_value=-8.29755e-05 -0.00444541 0.00072736 0.0178637 -0.0170274 -0.0046965 0.0103061 -0.00792704 -0.00678814 -0.0109194 -0.0094513 -0.00576974 -0.00107969 -0.00534519 0.000244344 0.000914121 -0.0041673 -0.0115811 -0.0261478 0.0121157 -0.00909835 0.0148837 0.0114903 0.00885878 -0.0063516 0.0101876 0.00250698 0.0044817 -0.0054835 0.0253397
internal_weight=1484.87 1194.51 846.499 290.36 348.016 540.467 306.032 453.353 440.99 244.672 387.222 300.739 215.398 179.11 126.668 88.8714 75.507 56.7355 65.5621 87.1137 20.1227 240.063 191.396 172.266 65.9693 167.902 182.313 170.237 65.1479 201.488
internal_count=6705 5232 3779 1473 1453 2345 1434 1936 1885 1029 1650 1297 947 760 546 397 328 244 269 409 86 1151 911 814 283 794 801 749 282 1076
is_linear=0
shrinkage=0.03


Tree=23
num_leaves=31
num_cat=0
split_feature=7 27 26 9 26 25 25 9 8 26 9 20 27 8 23 26 7 13 13 7 26 8 25 25 26 6 6 13 6 15
split_gain=122.541 81.6336 45.8709 39.2758 35.0034 28.5013 26.983 21.4308 20.6824 19.6189 18.9964 18.804 22.7151 16.9583 17.2605 14.9873 13.7619 15.797 12.9888 19.1445 12.6782 11.977 11.2554 10.4657 11.4021 10.2808 10.2044 10.6112 10.5832 9.83024
threshold=-0.73537732795110855 0.37025411481712173 0.18699666417551011 1.0000000180025095e-35 1.8182313494738522 0.8126269858307974 -0.022351491374804865 0.33319533952620056 0.21357092264000901 0.013292206017561741 0.050255026562545262 -1.8609965195226061 -0.90692726941927615 -1.0550698633532647 -0.6774946108212726 -0.56282452625435775 -1.5064831117557203 -0.28966844125543195 1.512983952548838 0.64777206003922638 -1.0194850447626769 -0.95621473717197081 1.5789143634491027 -0.12233520299631688 -0.76053287308813944 0.57015297527419351 -0.19778383030855065 -0.52095214461145123 -0.38026386331831158 0.21330993794809108
decision_type=2 2 2 2 2 2 2 2 2 2 2 2 2 2 2 2 2 2 2 2 2 2 2 2 2 2 2 2 2 2
left_child=3 2 5 23 6 11 7 9 10 -3 26 -2 -13 25 -15 -8 -5 22 19 -11 -16 29 -18 24 -1 -14 27 -4 -29 -7
right_child=1 4 8 16 -6 21 15 -9 -10 18 -12 12 13 14 20 -17 17 -19 -20 -21 -22 -23 -24 -25 -26 -27 -28 28 -30 -31
leaf_value=-0.02906856942283715 -0.045629828761461655 -0.025704567016706734 0.028669201333765722 0.02682022892633 0.024466701636599579 0.017994924943825312 -0.022302230075292799 -0.033573427591650024 0.025375837047595093 0.0011971199552978612 -0.010477054351481274 0.012059058944800289 -0.028368910760240004 0.0084918306063393543 -0.024184046169728819 0.0045014356301864055 -0.016562729844354761 0.020522333725441426 0.028137975731352041 -0.024774709287254771 -0.0058140340352117598 0.018069909364102039 0.029542665021297335 0.028708771755355789 0.017763816480258401 -0.0045737975112713656 0.016337595681036595 -0.00028221677529017452 -0.043443155411259968 -0.027796293927388176
leaf_weight=5.2747462242841712 11.148223474621771 100.99913631379604 9.3730913847684842 15.252859100699423 19.250842958688736 6.9552213102579143 25.94278609752655 90.112622812390327 69.553930968046188 57.201720774173737 46.246233239769936 53.594410821795464 54.639209017157555 62.262410968542099 42.22916416823864 67.952723920345306 50.802473187446594 17.346035227179527 8.5196053832769376 46.153327569365501 169.65605281293392 64.858407944440842 5.2586786299943915 152.26134046912193 41.41215892136097 23.314580604434013 112.00223051011562 33.823434665799141 6.0236223191022864 10.726372629404066
leaf_count=25 46 415 44 76 89 30 109 370 361 245 196 235 222 271 177 294 215 79 36 193 735 314 27 839 212 96 530 152 27 45
internal_value=-7.91444e-05 -0.00431825 0.00142808 0.0174979 -0.0150396 -0.00400299 -0.0169558 -0.0213104 0.0112186 -0.0161193 0.00647236 -0.00719219 -0.00613595 -0.00890547 -0.00539467 -0.00290426 0.000890977 -0.00449671 -0.0074658 -0.0104006 -0.00947522 0.0121031 -0.0122379 0.0248987 0.0124726 -0.0212522 0.0113343 -5.1029e-05 -0.00680679 -0.00978389
internal_weight=1480.15 1192.54 776.407 287.608 416.133 499.384 396.882 302.986 277.023 212.874 207.469 416.844 405.696 352.101 274.148 93.8955 88.66 73.4072 111.875 103.355 211.885 82.54 56.0612 198.948 46.6869 77.9538 161.222 49.2201 39.8471 17.6816
internal_count=6705 5232 3481 1473 1751 2171 1662 1259 1310 889 949 1782 1736 1501 1183 403 397 321 474 438 912 389 242 1076 237 318 753 223 179 75
is_linear=0
shrinkage=0.03


Tree=24
num_leaves=31
num_cat=0
split_feature=25 8 26 21 9 8 23 26 25 11 26 25 9 11 0 9 19 11 7 6 13 13 7 6 19 9 14 2 24 18
split_gain=117.16 79.6714 59.7094 49.4366 47.7729 29.3192 21.9098 21.2007 20.2914 18.9676 18.0444 15.94 14.6279 12.6178 12.388 12.2917 18.6979 12.2438 11.9217 11.8299 11.4345 11.1617 14.1629 10.9466 10.6626 11.0489 10.5542 10.5437 13.2204 10.1761
threshold=0.55160080739906447 0.21357092264000901 1.5900028175227559 -1.9851004513325468 -0.30342036464202377 -0.95621473717197081 -0.6774946108212726 0.20735316788502969 -0.47265981089153802 -0.35863690947871169 0.81844133100955452 1.3499440314914419 0.52771680468871363 0.48028264935458359 -1.3475168477186863 1.0000000180025095e-35 1.0000000180025095e-35 -0.45185019379352226 0.011523341563672311 -1.3002673630758566 0.92116977043196435 -0.84747031405524365 -0.2512750421544912 -0.076130474968710032 0.47358652279639363 0.36856287864665754 -0.16728497292510228 0.1437905595214215 0.87927278905574402 -0.80433304262085881
decision_type=2 2 2 2 2 2 2 2 2 2 2 2 2 2 2 2 2 2 2 2 2 2 2 2 2 2 2 2 2 2
left_child=1 2 3 -1 7 27 -3 8 -5 14 17 15 18 -9 -6 -7 -17 -8 29 -19 -14 -10 -23 -20 25 -16 -22 -2 -29 -11
right_child=5 6 -4 4 9 11 10 13 21 12 -12 -13 20 -15 24 16 -18 19 23 -21 26 22 -24 -25 -26 -27 -28 28 -30 -31
leaf_value=0.023497586982357523 0.0087199546243345218 0.025968534704734848 0.022447182345483579 -0.02101622419888171 -0.03081296107114086 0.018119311276232314 0.018821857238707995 0.01929701398886011 -0.036067265939154498 -0.029017195262720383 0.023402664927413129 0.028108256125132465 -0.031180282953409813 -0.0051655209436236478 8.5326972106779109e-05 -0.030351064313949731 0.012047975394266493 -0.050201127818149172 -0.028194191303796818 -0.0023717602171945164 -0.034959985306785922 0.027120674902465426 -0.002471414859594167 -0.014934216092950689 0.013753316091917878 -0.025481404533501364 0.018943637390640037 -0.036435023535431099 0.0036684004043488674 -0.0027387544129160563
leaf_weight=36.294282376766205 28.13048392534256 63.337208762764931 51.741317734122276 60.172658681869507 15.449170559644697 136.97530427575111 24.849926829338074 56.913638547062874 6.4528479576110831 15.973615288734434 38.061310857534409 108.03217580914497 116.01621070504189 28.469307392835617 46.996271550655365 12.948029309511183 33.790662035346031 4.8827351927757254 88.364007771015167 99.38770005106926 5.3806880116462699 19.478539526462555 57.598937153816223 153.13795427978039 27.941514685750008 22.494318768382072 8.3303221166133863 15.208593010902407 14.405761435627936 78.140577346086502
leaf_count=179 128 327 247 252 65 692 123 263 28 68 195 581 474 124 207 56 151 22 364 458 22 92 240 641 119 92 34 65 62 334
internal_value=-7.55229e-05 -0.0047857 -0.00883507 -0.0107537 -0.0122936 0.0150981 0.0109422 -0.000699362 -0.00773414 -0.016887 0.00524947 0.0189638 -0.0195632 0.0111405 -0.00585503 0.0135864 0.000302161 -0.000101617 -0.0162563 -0.0046115 -0.0281184 0.00183387 0.00500691 -0.019786 -0.00189761 -0.0081907 -0.00221006 -0.004433 -0.0169269 -0.00719889
internal_weight=1475.36 1125.87 895.346 843.605 807.311 349.491 230.519 229.086 143.703 578.225 167.182 291.746 465.343 85.3829 112.881 183.714 46.7387 129.12 335.616 104.27 129.727 83.5303 77.0775 241.502 97.4321 69.4906 13.711 57.7448 29.6144 94.1142
internal_count=6705 4970 3845 3598 3419 1735 1125 999 612 2420 798 1480 1937 387 483 899 207 603 1407 480 530 360 332 1005 418 299 56 255 127 402
is_linear=0
shrinkage=0.03


Tree=25
num_leaves=31
num_cat=0
split_feature=8 25 9 26 11 27 26 27 10 15 9 19 19 26 27 23 25 25 18 12 2 13 2 6 26 13 30 27 19 2
split_gain=114.897 70.4998 48.098 39.5277 32.7022 27.5995 26.7046 25.3422 21.8713 17.9128 17.6707 18.3343 16.3651 14.635 14.5118 14.3958 13.8659 13.5959 16.8745 13.4679 14.9201 12.8463 12.7724 12.1992 11.9198 11.5215 11.014 10.9929 10.8179 10.5832
threshold=1.0000000180025095e-35 0.68593006881422536 -0.30342036464202377 1.6115703551846952 -1.2907697526268176 0.29774503750730469 0.23012725622520711 0.06816871581064779 -1.2139271579255866 -0.23265263513243992 1.0000000180025095e-35 1.2411904699990346 -1.013646124908723 -0.31669812265740305 1.5862885469453938 -0.6774946108212726 -0.45281571545520705 0.34705397751688755 1.333613635901219 0.21061990637122643 -0.8531573198271154 0.92116977043196435 1.0000000180025095e-35 0.78304634711891485 0.23012725622520711 1.7136565775195021 1.0000000180025095e-35 1.475372769419167 -1.061621371608888 -0.11503244761714079
decision_type=2 2 2 2 2 2 2 2 2 2 2 2 2 2 2 2 2 2 2 2 2 2 2 2 2 2 2 2 2 2
left_child=1 2 6 4 -4 9 12 8 -6 -2 27 -12 -1 25 15 19 -14 18 24 21 -21 -9 29 -22 -11 -10 -24 -7 -15 -3
right_child=5 22 3 -5 7 10 -8 14 13 17 11 -13 16 28 -16 -17 -18 -19 -20 20 23 -23 26 -25 -26 -27 -28 -29 -30 -31
leaf_value=0.018745830795211658 0.028225690695243083 0.010238841652675896 0.024089550409891917 0.020190127726337572 -0.042103810001604652 0.011817811556865588 0.014613098332461527 -0.0051884131202354711 -0.018831147493263169 0.00079121843909046798 -0.023055381135735901 0.032993337965157431 -0.022426496940071761 0.02868500368774737 -0.041461621897491009 -0.025081498406566927 -0.0019618088878414108 0.021256539810331626 -0.031980939090449093 -0.058199298579865277 -0.026302067139642098 0.039791771661251536 0.034330425892428934 0.011870910518476361 0.021195136053613818 0.01555143499570897 0.0012210645449985123 -0.020497012238746115 -0.0032592821146985675 0.032608795795284869
leaf_weight=20.494009837508202 97.023842260241508 41.907371029257774 17.900766372680664 28.853070884943008 17.790241286158562 89.733694717288017 91.700494393706322 27.655970230698586 97.143942609429359 62.125899285078049 35.675900787115097 6.159466326236724 49.851878970861435 10.414495751261709 34.036281228065491 188.14106085896492 74.071803152561188 91.448708772659302 9.7522695660591108 7.9426262825727454 20.581668570637703 7.2028063386678687 9.9813534170389158 11.88590234518051 44.03149887919426 9.6421361863613111 96.132478103041649 10.592784255743025 113.76735851168633 34.873231410980225
leaf_count=94 519 195 90 137 74 443 421 114 399 283 149 27 207 48 141 774 319 481 46 33 85 30 49 49 225 41 451 45 490 188
internal_value=-0.000186456 -0.00577977 -0.00949883 -0.0140586 -0.0158103 0.0124893 0.00195194 -0.017118 -0.0100519 0.0175863 0.00157592 -0.0148033 -0.00608748 -0.00758306 -0.0230275 -0.0206455 -0.0101943 0.0126081 0.00578487 -0.00955742 -0.0213436 0.00410576 0.0110791 -0.0123275 0.00925427 -0.0157266 0.00433542 0.00840591 -0.000580279 0.0203991
internal_weight=1458.52 1011.97 829.077 592.958 564.105 446.544 236.118 546.204 248.758 304.382 142.162 41.8354 144.418 230.968 297.446 263.41 123.924 207.358 115.91 75.269 40.4102 34.8588 182.894 32.4676 106.157 106.786 106.114 100.326 124.182 76.7806
internal_count=6647 4429 3546 2505 2368 2218 1041 2278 1052 1554 664 176 620 978 1226 1085 526 1035 554 311 167 144 883 134 508 440 500 488 538 383
is_linear=0
shrinkage=0.03


Tree=26
num_leaves=31
num_cat=0
split_feature=8 9 7 25 26 27 26 27 9 25 12 16 19 27 21 6 24 17 7 13 18 12 13 8 6 26 6 13 16 10
split_gain=110.68 75.8002 52.2761 36.6642 36.4584 36.4372 25.1665 20.1441 19.9463 20.0158 18.5603 17.8111 17.0764 16.341 14.9511 18.6654 16.2791 14.6237 12.7541 12.6467 13.4786 12.1588 11.9904 11.2603 11.1304 11.0644 13.8027 10.6799 10.6666 10.2673
threshold=-0.72555277608228463 1.0000000180025095e-35 -0.80453479735062527 0.94390330948652335 0.81844133100955452 1.1214606986136582 1.6841146435486858 0.52686228844886596 -1.0815062252920755 0.37758335511124225 1.7780974633688118 -0.63239499906929997 0.66548750959705394 0.016328765027167558 1.3799534748074704 0.59296297940041387 1.4096671637674694 -0.54479442411054713 -1.0327544463690306 2.0673845944169433 0.94987961667930743 0.5616695675738107 1.832699660129218 0.42775702936614624 0.61577298352663379 -0.45489347952487152 -0.75282726404657363 0.20691127477366869 -0.29907099072683591 -1.435473431629253
decision_type=2 2 2 2 2 2 2 2 2 2 2 2 2 2 2 2 2 2 2 2 2 2 2 2 2 2 2 2 2 2
left_child=7 2 21 6 5 8 11 10 28 19 14 17 13 -13 15 16 18 -3 -1 20 23 -2 -17 25 -22 -10 -27 -15 -4 -20
right_child=1 3 4 -5 -6 -7 -8 -9 9 -11 -12 12 -14 27 -16 22 -18 -19 29 -21 24 -23 -24 -25 -26 26 -28 -29 -30 -31
leaf_value=0.01222809188248828 0.028394337882128667 0.0084670501328819713 0.022053534774580136 0.019013143112877381 0.020490776384906925 -0.023847649972377524 0.031756544713409045 -0.024282406342449988 -0.018637711016534664 0.011580561228890379 -0.043747166746570899 -0.00053335656290515773 0.0065611230187531408 -0.031813289293647379 0.022388690061399846 0.0010242029313053862 0.017277880927391395 -0.029162224510158152 -0.053562980668022918 0.032269786974804267 -0.039134795034742334 0.0019378965776001254 0.04704362507296328 0.0098352603132828807 0.005562276516790224 -0.028028161553249043 0.0032001656658953862 -0.0024240515267397482 0.0055686025324111765 -0.017987041099781918
leaf_weight=12.013801053166388 133.56644482910633 10.482505157589911 73.307160004973412 38.140890061855316 121.62132707238197 44.076456636190414 11.051014855504034 124.04915928840637 49.279890984296799 104.5636692494154 13.385251298546789 41.561599239706993 48.151432901620865 47.108072012662888 14.219573110342024 48.266759544610977 13.291328594088553 82.04659166932106 7.7456723898649207 8.2397767156362516 17.705233365297321 17.70663982629776 5.6970225721597663 47.097697868943214 6.9951414018869391 14.905399933457373 87.612507700920105 14.570388346910475 68.18246054649353 127.20401583611965
leaf_count=58 768 45 337 189 610 180 50 515 204 507 55 177 205 194 62 207 62 339 32 37 77 94 25 227 31 64 376 61 323 536
internal_value=-0.000180183 0.00461995 0.00942856 -0.00842 0.00569859 0.00225191 -0.0125237 -0.014454 0.00465912 0.000684239 -0.00941232 -0.0145298 -0.00819215 -0.0150731 -0.00740048 -0.00937785 -0.0145166 -0.0248993 -0.0173921 -0.00423028 -0.00557535 0.0252976 0.00588253 -0.00297967 -0.0264766 -0.00695571 -0.00134022 -0.0248706 0.0141096 -0.020029
internal_weight=1453.84 1087.97 794.86 293.112 643.587 521.965 254.972 365.873 477.889 336.399 241.823 243.921 151.391 103.24 228.438 214.219 160.255 92.5291 146.963 231.836 223.596 151.273 53.9638 198.895 24.7004 151.798 102.518 61.6785 141.49 134.95
internal_count=6647 5095 3835 1260 2973 2363 1071 1552 2183 1523 1037 1021 637 432 982 920 688 384 626 1016 979 862 232 871 108 644 440 255 660 568
is_linear=0
shrinkage=0.03


Tree=27
num_leaves=31
num_cat=0
split_feature=8 25 9 26 7 11 26 27 27 10 24 27 26 26 11 22 19 9 19 11 13 27 23 12 23 13 15 14 13 17
split_gain=104.623 63.9379 43.5318 35.6732 34.6727 30.9863 25.8189 23.0212 22.0817 20.9497 16.9869 16.2148 15.4504 14.6322 13.7614 13.2459 12.9388 12.7585 13.8615 12.3577 12.1703 10.7498 11.2611 14.8099 11.3611 11.0096 10.8806 10.632 14.8852 11.5587
threshold=1.0000000180025095e-35 0.68593006881422536 -0.48025806024430834 1.6115703551846952 -0.90827100144990036 -1.1975564683120068 0.20735316788502969 0.06816871581064779 0.35632065835661242 -1.2139271579255866 1.4671706908403526 0.72905230032608459 -0.33597628309591521 0.7086571048441096 -0.35863690947871169 -0.78034619859159393 -0.86972038480822789 1.0000000180025095e-35 1.0013142364982095 0.85313578661382605 1.7136565775195021 1.5550663347664215 -0.6774946108212726 0.21061990637122643 1.1077341644406065 0.92116977043196435 0.65927251102862228 -0.48491370382885962 0.58444790819305348 0.17420569628587221
decision_type=2 2 2 2 2 2 2 2 2 2 2 2 2 2 2 2 2 2 2 2 2 2 2 2 2 2 2 2 2 2
left_child=1 2 6 5 -2 -4 11 9 13 -7 15 16 20 19 -9 -3 -1 -10 -19 27 -11 22 23 25 26 -16 -24 28 -6 -29
right_child=4 10 3 -5 8 7 -8 14 17 12 -12 -13 -14 -15 21 -17 -18 18 -20 -21 -22 -23 24 -25 -26 -27 -28 29 -30 -31
leaf_value=0.021685957133437912 0.029175809076509664 -0.015559463385136689 0.023179649001776284 0.019208488053592383 -0.027592561025610387 -0.039631756279989612 0.015608914025225382 -0.0053940755455429441 0.0035560164365134998 -0.018684918944657979 0.02841446109567056 -0.025075567606029442 -8.6984931863730256e-05 0.02652448342214403 -0.0046185452255419505 0.0097742072801360394 -0.0054310099499781175 -0.028179266833544703 0.019718959995062579 0.030733683993052856 0.017185234780905806 -0.03914625687369077 -0.032515728629484458 -0.02429845289053004 -0.003679364565403553 0.040865556327760948 -0.012108006793664406 0.014779104631819921 0.019206769478584254 -0.0041441007635279296
leaf_weight=19.934613972902298 85.397257715463638 21.941230475902557 18.820245698094368 29.335371986031532 17.323759838938717 18.980088278651237 84.062702134251595 41.649796366691589 74.748435005545616 95.532169356942177 38.166833475232124 30.057157263159752 132.91235657036304 54.789854779839516 24.619204819202427 121.07206544280052 77.030263528227806 27.213071674108505 6.7955815494060507 20.892156347632408 9.345699265599249 36.148341730237007 119.01457619667053 35.279836282134056 18.715882539749146 5.9464004337787619 29.301902875304222 104.3436893671751 9.4552020132541639 40.260086894035339
leaf_count=92 497 103 96 141 81 79 390 174 350 392 199 124 576 296 101 581 331 112 29 101 40 151 491 146 77 25 120 513 44 195
internal_value=-0.00017393 -0.00550744 -0.00904484 -0.013076 0.0120093 -0.0146915 0.00271159 -0.0159475 0.00788932 -0.00930084 0.010633 -0.0058238 -0.00687986 0.0128478 -0.0214409 0.00588749 0.000143857 -0.00337482 -0.0186083 0.00895049 -0.0154885 -0.0239252 -0.0215626 -0.0110554 -0.0257046 0.00423018 -0.0284839 0.00629504 -0.0110685 0.00951057
internal_weight=1449.09 1007.87 826.687 615.602 441.219 586.267 211.085 567.446 355.822 256.77 181.18 127.022 237.79 247.065 310.676 143.013 96.9649 108.757 34.0087 192.275 104.878 269.026 232.878 65.8454 167.032 30.5656 148.316 171.383 26.779 144.604
internal_count=6647 4429 3546 2609 2218 2468 937 2372 1721 1087 883 547 1008 1230 1285 684 423 491 141 934 432 1111 960 272 688 126 611 833 125 708
is_linear=0
shrinkage=0.03


Tree=28
num_leaves=31
num_cat=0
split_feature=8 9 7 26 25 27 26 7 25 26 16 19 6 13 26 27 25 27 16 14 12 6 27 20 6 24 21 11 12 16
split_gain=101.199 69.6318 48.6712 33.703 33.3968 33.2397 23.336 19.2816 18.5187 18.5672 17.1718 17.9259 16.6539 15.3065 12.8655 12.6188 12.611 12.1813 11.9854 11.9563 11.6978 11.2348 10.9084 10.146 9.98093 14.3515 9.96727 9.49125 9.35245 9.31237
